{"learner":{"attributes":{"best_iteration":"191","best_score":"0.16632145525994702"},"feature_names":[],"feature_types":[],"gradient_booster":{"model":{"gbtree_model_param":{"num_parallel_tree":"1","num_trees":"200"},"iteration_indptr":[0,1,2,3,4,5,6,7,8,9,10,11,12,13,14,15,16,17,18,19,20,21,22,23,24,25,26,27,28,29,30,31,32,33,34,35,36,37,38,39,40,41,42,43,44,45,46,47,48,49,50,51,52,53,54,55,56,57,58,59,60,61,62,63,64,65,66,67,68,69,70,71,72,73,74,75,76,77,78,79,80,81,82,83,84,85,86,87,88,89,90,91,92,93,94,95,96,97,98,99,100,101,102,103,104,105,106,107,108,109,110,111,112,113,114,115,116,117,118,119,120,121,122,123,124,125,126,127,128,129,130,131,132,133,134,135,136,137,138,139,140,141,142,143,144,145,146,147,148,149,150,151,152,153,154,155,156,157,158,159,160,161,162,163,164,165,166,167,168,169,170,171,172,173,174,175,176,177,178,179,180,181,182,183,184,185,186,187,188,189,190,191,192,193,194,195,196,197,198,199,200],"tree_info":[0,0,0,0,0,0,0,0,0,0,0,0,0,0,0,0,0,0,0,0,0,0,0,0,0,0,0,0,0,0,0,0,0,0,0,0,0,0,0,0,0,0,0,0,0,0,0,0,0,0,0,0,0,0,0,0,0,0,0,0,0,0,0,0,0,0,0,0,0,0,0,0,0,0,0,0,0,0,0,0,0,0,0,0,0,0,0,0,0,0,0,0,0,0,0,0,0,0,0,0,0,0,0,0,0,0,0,0,0,0,0,0,0,0,0,0,0,0,0,0,0,0,0,0,0,0,0,0,0,0,0,0,0,0,0,0,0,0,0,0,0,0,0,0,0,0,0,0,0,0,0,0,0,0,0,0,0,0,0,0,0,0,0,0,0,0,0,0,0,0,0,0,0,0,0,0,0,0,0,0,0,0,0,0,0,0,0,0,0,0,0,0,0,0,0,0,0,0,0,0],"trees":[{"base_weights":[-1.784673E-2,1.7052934E0,-4.858634E-1,2.2041235E0,1.2324913E0,-6.6480094E-1,1.9472014E0,1.6056007E0,8.376808E-1,9.26823E-1,2.2538352E0,4.324931E-2,-9.868732E-1,1.3338419E0,7.8371096E-1,1.4275608E0,2.5339532E0,-8.873641E-1,9.849273E-1,1.6741246E0,7.8773457E-1,-6.798976E-1,8.374512E-1,-1.0258669E0,-3.2802007E-1,1.9047537E0,4.3148726E-1,3.6873347E-1,5.2063906E-1,7.8802246E-1,-2.4935758E-1,3.5605407E-1,-4.3347353E-1,3.6126572E-1,2.2344472E-1,5.2660143E-1,-2.8761783E-1,-2.2526972E-1,6.529593E-2,-1.3327426E-1,-3.1364328E-1,-4.414571E-2,-4.4730836E-1,4.493811E-1,8.165033E-1,3.835999E-1,-4.1784577E-2],"categories":[],"categories_nodes":[],"categories_segments":[],"categories_sizes":[],"default_left":[0,0,0,0,0,0,0,0,0,0,0,0,0,0,0,0,0,0,0,0,0,0,0,0,0,0,0,0,0,0,0,0,0,0,0,0,0,0,0,0,0,0,0,0,0,0,0],"id":0,"left_children":[1,3,5,7,9,11,13,15,-1,17,19,21,23,25,-1,27,29,31,33,35,-1,37,-1,39,41,43,45,-1,-1,-1,-1,-1,-1,-1,-1,-1,-1,-1,-1,-1,-1,-1,-1,-1,-1,-1,-1],"loss_changes":[5.131546E3,3.1782715E2,2.1798372E3,2.2787817E2,2.1645447E2,1.0631521E3,1.3647693E2,5.0845093E1,0E0,5.7847046E1,3.022174E1,2.9005347E3,8.198706E1,9.2175934E1,0E0,1.4900879E1,1.8337006E1,2.1720882E1,2.6703491E1,1.5689987E1,0E0,7.37995E1,0E0,3.403662E1,3.7753155E1,3.2571106E1,3.462919E1,0E0,0E0,0E0,0E0,0E0,0E0,0E0,0E0,0E0,0E0,0E0,0E0,0E0,0E0,0E0,0E0,0E0,0E0,0E0,0E0],"parents":[2147483647,0,0,1,1,2,2,3,3,4,4,5,5,6,6,7,7,9,9,10,10,11,11,12,12,13,13,15,15,16,16,17,17,18,18,19,19,21,21,23,23,24,24,25,25,26,26],"right_children":[2,4,6,8,10,12,14,16,-1,18,20,22,24,26,-1,28,30,32,34,36,-1,38,-1,40,42,44,46,-1,-1,-1,-1,-1,-1,-1,-1,-1,-1,-1,-1,-1,-1,-1,-1,-1,-1,-1,-1],"split_conditions":[-1.3833545E0,-7.571703E-1,2.163391E0,-7.9324925E-1,1.0416962E0,-7.571703E-1,3.8596532E0,1.7090881E0,8.376808E-1,-7.567418E-1,2.3404117E0,-7.9324925E-1,1.2159004E0,-1.8259549E-1,7.8371096E-1,-1.0444578E0,9.4310486E-1,-6.1352664E-1,-9.478091E-2,1.9861505E0,7.8773457E-1,1.1268306E0,8.374512E-1,-1.2993226E0,1.3974853E0,-2.1407667E-1,-1.3657907E-1,3.6873347E-1,5.2063906E-1,7.8802246E-1,-2.4935758E-1,3.5605407E-1,-4.3347353E-1,3.6126572E-1,2.2344472E-1,5.2660143E-1,-2.8761783E-1,-2.2526972E-1,6.529593E-2,-1.3327426E-1,-3.1364328E-1,-4.414571E-2,-4.4730836E-1,4.493811E-1,8.165033E-1,3.835999E-1,-4.1784577E-2],"split_indices":[3,4,0,8,0,4,0,0,0,0,0,8,0,4,0,4,2,4,7,6,0,0,0,3,4,8,6,0,0,0,0,0,0,0,0,0,0,0,0,0,0,0,0,0,0,0,0],"split_type":[0,0,0,0,0,0,0,0,0,0,0,0,0,0,0,0,0,0,0,0,0,0,0,0,0,0,0,0,0,0,0,0,0,0,0,0,0,0,0,0,0,0,0,0,0,0,0],"sum_hessian":[6.361037E3,1.358111E3,5.0029263E3,6.5908325E2,6.9902765E2,4.660873E3,3.4205295E2,3.2850858E2,3.3057468E2,5.394795E2,1.5954819E2,1.457513E3,3.2033604E3,1.795204E2,1.6253255E2,2.7777454E2,5.0734028E1,1.6299168E1,5.231803E2,6.450797E1,9.5040215E1,1.1544861E3,3.0302676E2,3.0238398E3,1.795204E2,1.0927329E2,7.0247116E1,1.7194473E2,1.058298E2,4.95862E1,1.1478287E0,3.2139204E0,1.3085247E1,2.713467E2,2.5183362E2,6.2901012E1,1.6069602E0,1.0700059E3,8.4480194E1,9.940196E1,2.924438E3,1.5633427E2,2.318614E1,7.483843E1,3.443486E1,2.7777454E1,4.246966E1],"tree_param":{"num_deleted":"0","num_feature":"18","num_nodes":"47","size_leaf_vector":"1"}},{"base_weights":[-3.2424733E-2,1.0911317E0,-3.8344607E-1,1.3999151E0,7.9533345E-1,-5.228159E-1,1.2492849E0,1.0219126E0,5.322562E-1,5.478084E-1,1.3058622E0,1.3929683E-2,-7.83723E-1,7.528923E-1,1.5613912E0,8.8655114E-1,1.5504761E0,8.977543E-1,3.4104982E-1,1.0302901E0,1.6662228E0,-5.1776E-1,5.321738E-1,-8.2307565E-1,-3.0433777E-1,1.3189341E0,2.140496E-1,1.3572619E0,5.330393E-1,2.125561E-1,3.5473654E-1,4.8238128E-1,-2.5957778E-1,2.3293314E-3,3.1806165E-1,-1.3422811E-1,1.3787258E-1,5.095469E-1,2.4625398E-1,5.0737166E-1,2.029659E-1,-3.451484E-1,-1.2763925E-1,-9.286312E-2,-2.5250125E-1,1.3222438E-1,-1.599558E-1,-1.0619834E-1,4.463407E-1,1.280522E-1,-4.438167E-1,4.4524714E-1,-1.6419135E-2],"categories":[],"categories_nodes":[],"categories_segments":[],"categories_sizes":[],"default_left":[0,0,0,0,0,0,0,0,0,0,0,0,0,0,0,0,0,0,0,0,0,0,0,0,0,0,0,0,0,0,0,0,0,0,0,0,0,0,0,0,0,0,0,0,0,0,0,0,0,0,0,0,0],"id":1,"left_children":[1,3,5,7,9,11,13,15,-1,17,19,21,23,25,27,29,31,33,35,37,39,41,-1,43,45,47,49,51,-1,-1,-1,-1,-1,-1,-1,-1,-1,-1,-1,-1,-1,-1,-1,-1,-1,-1,-1,-1,-1,-1,-1,-1,-1],"loss_changes":[2.4090554E3,1.3169812E2,1.0597183E3,9.864978E1,9.342523E1,6.00619E2,5.5578552E1,2.4071228E1,0E0,3.6119766E1,2.2367767E1,1.3145684E3,5.4193848E1,4.343907E1,7.4370728E0,1.420108E1,1.1271194E1,2.6936127E1,2.9931206E1,1.8206223E1,1.4176025E0,6.2516846E1,0E0,2.5201904E1,3.783686E1,2.0221352E1,2.7524555E1,2.1445435E1,0E0,0E0,0E0,0E0,0E0,0E0,0E0,0E0,0E0,0E0,0E0,0E0,0E0,0E0,0E0,0E0,0E0,0E0,0E0,0E0,0E0,0E0,0E0,0E0,0E0],"parents":[2147483647,0,0,1,1,2,2,3,3,4,4,5,5,6,6,7,7,9,9,10,10,11,11,12,12,13,13,14,14,15,15,16,16,17,17,18,18,19,19,20,20,21,21,23,23,24,24,25,25,26,26,27,27],"right_children":[2,4,6,8,10,12,14,16,-1,18,20,22,24,26,28,30,32,34,36,38,40,42,-1,44,46,48,50,52,-1,-1,-1,-1,-1,-1,-1,-1,-1,-1,-1,-1,-1,-1,-1,-1,-1,-1,-1,-1,-1,-1,-1,-1,-1],"split_conditions":[-1.3833545E0,-7.571703E-1,2.163391E0,-7.9324925E-1,5.806776E-1,-7.571703E-1,3.1921892E0,1.2676743E0,5.322562E-1,-4.5934778E-1,2.3404117E0,-7.9324925E-1,1.0416962E0,-7.571703E-1,5.95191E0,-1.4673865E0,9.4310486E-1,-1.8259549E-1,-6.608843E-1,6.532477E-1,1.3438057E0,-1.0603989E0,5.321738E-1,-1.2993226E0,-3.262392E-1,-9.8478466E-1,9.4310486E-1,1.9928877E0,5.330393E-1,2.125561E-1,3.5473654E-1,4.8238128E-1,-2.5957778E-1,2.3293314E-3,3.1806165E-1,-1.3422811E-1,1.3787258E-1,5.095469E-1,2.4625398E-1,5.0737166E-1,2.029659E-1,-3.451484E-1,-1.2763925E-1,-9.286312E-2,-2.5250125E-1,1.3222438E-1,-1.599558E-1,-1.0619834E-1,4.463407E-1,1.280522E-1,-4.438167E-1,4.4524714E-1,-1.6419135E-2],"split_indices":[3,4,0,8,0,4,0,0,0,2,0,8,0,4,0,3,2,4,0,0,2,2,0,3,4,7,2,12,0,0,0,0,0,0,0,0,0,0,0,0,0,0,0,0,0,0,0,0,0,0,0,0,0],"split_type":[0,0,0,0,0,0,0,0,0,0,0,0,0,0,0,0,0,0,0,0,0,0,0,0,0,0,0,0,0,0,0,0,0,0,0,0,0,0,0,0,0,0,0,0,0,0,0,0,0,0,0,0,0],"sum_hessian":[6.1062114E3,1.4530739E3,4.6531377E3,7.09106E2,7.439679E2,4.28781E3,3.6532748E2,3.5465073E2,3.5445526E2,5.024384E2,2.4152951E2,1.402825E3,2.884985E3,1.423453E2,2.2298218E2,2.8447577E2,7.017495E1,1.8536308E2,3.170753E2,1.3905305E2,1.0247645E2,1.0778984E3,3.2492654E2,2.6654612E3,2.1952391E2,6.871455E1,7.363075E1,1.1823649E2,1.0474568E2,1.7973344E2,1.04742325E2,6.887115E1,1.3037995E0,2.8773743E1,1.5658934E2,4.1072193E1,2.7600308E2,3.1487436E1,1.0756562E2,9.925858E1,3.2178595E0,1.3575606E2,9.4214233E2,9.376083E1,2.5717004E3,5.1364624E1,1.6815929E2,6.1996956E0,6.251485E1,6.607586E1,7.5548973E0,1.08439926E2,9.796561E0],"tree_param":{"num_deleted":"0","num_feature":"18","num_nodes":"53","size_leaf_vector":"1"}},{"base_weights":[-2.7269112E-2,8.0294955E-1,-3.0258873E-1,1.0715739E0,5.625474E-1,-4.4639188E-1,6.6741145E-1,7.3008096E-1,4.3587556E-1,4.3700823E-1,1.2637398E0,-3.219259E-2,-6.5225506E-1,3.3620676E-1,1.2150549E0,6.3504475E-1,1.3235605E0,6.214815E-1,2.2372541E-1,1.2955866E0,2.4192882E-1,-4.4419736E-1,4.356794E-1,-6.6701746E-1,3.510276E-1,8.0348307E-1,-1.154473E-1,8.247571E-1,1.3246026E0,2.473799E-1,1.3502423E-1,4.2598385E-1,1.5864426E-1,2.3005004E-1,9.3905516E-2,-1.6325735E-1,1.4646898E-1,4.0816835E-1,2.0657665E-1,-3.9120618E-1,3.5341918E-1,-4.0512544E-1,-1.1840095E-1,-1.4395842E-1,-2.1822377E-1,2.5460365E-1,-3.551318E-1,2.6938078E-1,-2.1620812E-1,4.2888608E-2,-3.600044E-1,3.387314E-1,-2.3884754E-1,4.017024E-1,1.2856461E-1],"categories":[],"categories_nodes":[],"categories_segments":[],"categories_sizes":[],"default_left":[0,0,0,0,0,0,0,0,0,0,0,0,0,0,0,0,0,0,0,0,0,0,0,0,0,0,0,0,0,0,0,0,0,0,0,0,0,0,0,0,0,0,0,0,0,0,0,0,0,0,0,0,0,0,0],"id":2,"left_children":[1,3,5,7,9,11,13,15,-1,17,19,21,23,25,27,29,31,33,35,37,39,41,-1,43,45,47,49,51,53,-1,-1,-1,-1,-1,-1,-1,-1,-1,-1,-1,-1,-1,-1,-1,-1,-1,-1,-1,-1,-1,-1,-1,-1,-1,-1],"loss_changes":[1.28626E3,8.989728E1,5.89753E2,8.498639E1,6.473387E1,3.1383643E2,9.862535E1,1.8934052E1,0E0,2.4670624E1,3.3341827E0,7.4869617E2,3.6650146E1,7.218928E1,7.6888733E0,1.02918625E1,2.8854904E0,1.4894577E1,5.9984238E1,3.341339E0,8.218885E0,4.2471375E1,0E0,2.7043457E1,2.873693E1,2.4836983E1,4.9101074E1,2.4411804E1,1.4749451E0,0E0,0E0,0E0,0E0,0E0,0E0,0E0,0E0,0E0,0E0,0E0,0E0,0E0,0E0,0E0,0E0,0E0,0E0,0E0,0E0,0E0,0E0,0E0,0E0,0E0,0E0],"parents":[2147483647,0,0,1,1,2,2,3,3,4,4,5,5,6,6,7,7,9,9,10,10,11,11,12,12,13,13,14,14,15,15,16,16,17,17,18,18,19,19,20,20,21,21,23,23,24,24,25,25,26,26,27,27,28,28],"right_children":[2,4,6,8,10,12,14,16,-1,18,20,22,24,26,28,30,32,34,36,38,40,42,-1,44,46,48,50,52,54,-1,-1,-1,-1,-1,-1,-1,-1,-1,-1,-1,-1,-1,-1,-1,-1,-1,-1,-1,-1,-1,-1,-1,-1,-1,-1],"split_conditions":[-1.3833545E0,-7.571703E-1,1.3701389E0,-7.9324925E-1,1.7921646E0,-7.571703E-1,3.1921892E0,1.7921646E0,4.3587556E-1,-9.478091E-2,1.3438057E0,-7.9324925E-1,2.3455575E0,-4.698829E-1,3.8596532E0,-3.1297354E-3,1.4057728E0,1.4206896E0,-4.789898E-1,1.2538416E0,3.8596532E0,-7.5100124E-1,4.356794E-1,-6.596982E-1,6.8397236E-1,1.1434553E0,1.7337013E0,9.2478573E-1,2.2453823E0,2.473799E-1,1.3502423E-1,4.2598385E-1,1.5864426E-1,2.3005004E-1,9.3905516E-2,-1.6325735E-1,1.4646898E-1,4.0816835E-1,2.0657665E-1,-3.9120618E-1,3.5341918E-1,-4.0512544E-1,-1.1840095E-1,-1.4395842E-1,-2.1822377E-1,2.5460365E-1,-3.551318E-1,2.6938078E-1,-2.1620812E-1,4.2888608E-2,-3.600044E-1,3.387314E-1,-2.3884754E-1,4.017024E-1,1.2856461E-1],"split_indices":[3,4,0,8,0,4,0,0,0,7,2,8,2,4,0,1,1,17,0,4,0,0,0,2,7,2,11,6,2,0,0,0,0,0,0,0,0,0,0,0,0,0,0,0,0,0,0,0,0,0,0,0,0,0,0],"split_type":[0,0,0,0,0,0,0,0,0,0,0,0,0,0,0,0,0,0,0,0,0,0,0,0,0,0,0,0,0,0,0,0,0,0,0,0,0,0,0,0,0,0,0,0,0,0,0,0,0,0,0,0,0,0,0],"sum_hessian":[5.625225E3,1.4004103E3,4.2248145E3,6.597506E2,7.406596E2,3.6798188E3,5.449958E2,3.495998E2,3.1015085E2,6.2956726E2,1.1109236E2,1.2220981E3,2.4577207E3,3.4061316E2,2.0438263E2,3.0312863E2,4.6471146E1,3.3655722E2,2.9301004E2,1.0747477E2,3.6175954E0,9.5714685E2,2.6495123E2,2.422412E3,3.5308544E1,1.6702841E2,1.7358473E2,4.666232E1,1.5772032E2,1.4799857E2,1.5513008E2,4.0743214E1,5.727934E0,2.277516E2,1.0880562E2,7.479776E1,2.1821228E2,9.5961365E1,1.1513401E1,1.2161845E0,2.401411E0,4.8238865E1,9.08908E2,5.931782E2,1.829234E3,2.7000734E1,8.307808E0,1.576686E2,9.359814E0,1.408855E2,3.2699238E1,3.9541344E1,7.120975E0,1.5473833E2,2.9819806E0],"tree_param":{"num_deleted":"0","num_feature":"18","num_nodes":"55","size_leaf_vector":"1"}},{"base_weights":[-2.044606E-2,6.142035E-1,-2.375305E-1,8.639817E-1,4.0902704E-1,-3.2697952E-1,7.6748514E-1,5.393105E-1,3.872532E-1,3.1743035E-1,1.1505044E0,1.3354517E-2,-5.004686E-1,4.9307978E-1,1.1277242E0,4.570039E-1,1.1287977E0,1.3996972E-1,4.6991795E-1,8.3219165E-1,3.707369E-1,-3.012167E-1,3.8835147E-1,-5.471903E-1,-2.1158807E-1,7.423038E-1,1.12072594E-1,9.128819E-1,3.8047862E-1,1.1470567E-1,2.7368793E-1,3.6058158E-1,4.1581914E-2,9.501639E-2,-1.8858457E-1,1.7147715E-1,-3.9202515E-2,1.7226883E-3,3.3660755E-1,-2.7376115E-1,-6.657015E-2,-3.9192826E-2,-1.7185713E-1,-1.4821403E-2,-2.340584E-1,1.3865682E-1,4.1860685E-1,-1.2430658E-1,2.3830351E-1,3.135411E-1,-1.4363667E-1],"categories":[],"categories_nodes":[],"categories_segments":[],"categories_sizes":[],"default_left":[0,0,0,0,0,0,0,0,0,0,0,0,0,0,0,0,0,0,0,0,0,0,0,0,0,0,0,0,0,0,0,0,0,0,0,0,0,0,0,0,0,0,0,0,0,0,0,0,0,0,0],"id":3,"left_children":[1,3,5,7,9,11,13,15,-1,17,19,21,23,25,27,29,31,33,35,37,-1,39,-1,41,43,45,47,49,-1,-1,-1,-1,-1,-1,-1,-1,-1,-1,-1,-1,-1,-1,-1,-1,-1,-1,-1,-1,-1,-1,-1],"loss_changes":[7.0983795E2,6.694525E1,3.4536868E2,8.1255035E1,4.8729065E1,2.0819373E2,3.048877E1,1.5863136E1,0E0,1.7381805E1,1.1188736E0,4.805754E2,3.1405884E1,1.7012901E1,2.918747E0,9.77631E0,2.7795525E0,4.0872765E1,2.122454E1,4.7306004E0,0E0,4.6220383E1,0E0,2.1411682E1,3.0095512E1,1.9233437E1,2.6323935E1,1.09843445E1,0E0,0E0,0E0,0E0,0E0,0E0,0E0,0E0,0E0,0E0,0E0,0E0,0E0,0E0,0E0,0E0,0E0,0E0,0E0,0E0,0E0,0E0,0E0],"parents":[2147483647,0,0,1,1,2,2,3,3,4,4,5,5,6,6,7,7,9,9,10,10,11,11,12,12,13,13,14,14,15,15,16,16,17,17,18,18,19,19,21,21,23,23,24,24,25,25,26,26,27,27],"right_children":[2,4,6,8,10,12,14,16,-1,18,20,22,24,26,28,30,32,34,36,38,-1,40,-1,42,44,46,48,50,-1,-1,-1,-1,-1,-1,-1,-1,-1,-1,-1,-1,-1,-1,-1,-1,-1,-1,-1,-1,-1,-1,-1],"split_conditions":[-1.3833545E0,-7.571703E-1,2.163391E0,-7.9324925E-1,2.3404117E0,-7.571703E-1,3.8596532E0,1.7921646E0,3.872532E-1,-2.3077129E-1,3.1921892E0,-7.9324925E-1,6.984866E-1,-1.8259549E-1,5.95191E0,1.2436304E0,7.427545E-1,8.429297E-1,1.9863515E0,3.5022098E-1,3.707369E-1,-1.0603989E0,3.8835147E-1,-1.2339644E0,1.7337013E0,-2.1407667E-1,1.4206896E0,1.9928877E0,3.8047862E-1,1.1470567E-1,2.7368793E-1,3.6058158E-1,4.1581914E-2,9.501639E-2,-1.8858457E-1,1.7147715E-1,-3.9202515E-2,1.7226883E-3,3.3660755E-1,-2.7376115E-1,-6.657015E-2,-3.9192826E-2,-1.7185713E-1,-1.4821403E-2,-2.340584E-1,1.3865682E-1,4.1860685E-1,-1.2430658E-1,2.3830351E-1,3.135411E-1,-1.4363667E-1],"split_indices":[3,4,0,8,0,4,0,0,0,0,0,8,0,4,0,2,2,2,14,7,0,2,0,3,11,8,17,12,0,0,0,0,0,0,0,0,0,0,0,0,0,0,0,0,0,0,0,0,0,0,0],"split_type":[0,0,0,0,0,0,0,0,0,0,0,0,0,0,0,0,0,0,0,0,0,0,0,0,0,0,0,0,0,0,0,0,0,0,0,0,0,0,0,0,0,0,0,0,0,0,0,0,0,0,0],"sum_hessian":[5.1501865E3,1.3121798E3,3.8380066E3,5.9032166E2,7.218582E2,3.5249512E3,3.1305524E2,3.3658142E2,2.5374023E2,6.437608E2,7.809739E1,1.1904888E3,2.3344624E3,1.7904202E2,1.340132E2,2.96902E2,3.967943E1,2.984044E2,3.453564E2,1.8776192E1,5.9321198E1,9.564169E2,2.340719E2,2.0086946E3,3.257679E2,1.0766684E2,7.137519E1,5.5960777E1,7.805242E1,2.5665866E2,4.0243355E1,3.675096E1,2.9284663E0,2.4308908E2,5.531531E1,2.9539774E2,4.995867E1,5.139867E0,1.3636326E1,1.08633316E2,8.4778357E2,1.16940994E2,1.8917535E3,2.5431627E2,7.145163E1,7.654293E1,3.112391E1,4.0510654E1,3.0864534E1,5.1331573E1,4.6292043E0],"tree_param":{"num_deleted":"0","num_feature":"18","num_nodes":"51","size_leaf_vector":"1"}},{"base_weights":[-1.3039859E-2,4.7440103E-1,-1.8302588E-1,3.7806487E-1,9.3549156E-1,-2.5937146E-1,5.5848646E-1,6.243915E-1,2.0274732E-1,7.5301284E-1,1.1535494E0,-5.431744E-3,-4.1611362E-1,3.315063E-1,9.9456257E-1,3.137359E-1,3.5785073E-1,-7.380202E-1,2.2690417E-1,7.957103E-1,-5.134105E-1,1.1637104E-1,1.1630429E0,-2.0240504E-1,3.586319E-1,-4.6011098E-2,-4.5244437E-1,5.5590594E-1,-1.6015677E-1,7.6769495E-1,1.1544424E0,5.206167E-2,1.673861E-1,2.5284234E-1,-3.8442418E-1,9.026097E-2,-2.6101375E-2,2.6635954E-1,8.202038E-2,3.5154682E-1,1.4247327E-1,-7.872364E-2,1.2890111E-1,4.9602356E-2,-2.7261797E-1,-2.3147975E-1,-1.18927464E-1,1.1832367E-1,3.113253E-1,3.8498715E-2,-3.7794122E-1,2.6873386E-1,-1.0460931E-1,3.5064662E-1,1.1285098E-1],"categories":[],"categories_nodes":[],"categories_segments":[],"categories_sizes":[],"default_left":[0,0,0,0,0,0,0,0,0,0,0,0,0,0,0,0,0,0,0,0,0,0,0,0,0,0,0,0,0,0,0,0,0,0,0,0,0,0,0,0,0,0,0,0,0,0,0,0,0,0,0,0,0,0,0],"id":4,"left_children":[1,3,5,7,9,11,13,15,17,19,21,23,25,27,29,31,-1,33,35,37,-1,-1,39,41,-1,43,45,47,49,51,53,-1,-1,-1,-1,-1,-1,-1,-1,-1,-1,-1,-1,-1,-1,-1,-1,-1,-1,-1,-1,-1,-1,-1,-1],"loss_changes":[3.9272485E2,5.408371E1,1.9908533E2,4.372397E1,7.532028E0,1.26841995E2,3.217128E1,7.409721E1,1.3682247E1,1.3758797E1,2.3430634E-1,2.8818073E2,2.6474762E1,2.4080362E1,3.1727066E0,9.286222E0,0E0,1.4070874E1,1.3505932E1,5.364456E0,0E0,0E0,3.2348633E-3,3.9809998E1,0E0,3.2470345E1,3.1773254E1,1.122644E1,2.2025848E1,7.3541603E0,2.7274323E-1,0E0,0E0,0E0,0E0,0E0,0E0,0E0,0E0,0E0,0E0,0E0,0E0,0E0,0E0,0E0,0E0,0E0,0E0,0E0,0E0,0E0,0E0,0E0,0E0],"parents":[2147483647,0,0,1,1,2,2,3,3,4,4,5,5,6,6,7,7,8,8,9,9,10,10,11,11,12,12,13,13,14,14,15,15,17,17,18,18,19,19,22,22,23,23,25,25,26,26,27,27,28,28,29,29,30,30],"right_children":[2,4,6,8,10,12,14,16,18,20,22,24,26,28,30,32,-1,34,36,38,-1,-1,40,42,-1,44,46,48,50,52,54,-1,-1,-1,-1,-1,-1,-1,-1,-1,-1,-1,-1,-1,-1,-1,-1,-1,-1,-1,-1,-1,-1,-1,-1],"split_conditions":[-1.3833545E0,1.2676743E0,1.8971926E0,-7.571703E-1,3.1921892E0,-6.1352664E-1,3.8596532E0,-7.9324925E-1,-7.567418E-1,1.541129E0,-1.66145E0,-6.484561E-1,-1.318536E0,9.2478573E-1,5.95191E0,-1.4673865E0,3.5785073E-1,-7.8822494E-1,1.4057728E0,1.4057728E0,-5.134105E-1,1.1637104E-1,1.7964771E0,1.1268306E0,3.586319E-1,1.999141E0,-6.6788864E-1,2.015133E0,7.267811E-1,1.9928877E0,1.5577637E0,5.206167E-2,1.673861E-1,2.5284234E-1,-3.8442418E-1,9.026097E-2,-2.6101375E-2,2.6635954E-1,8.202038E-2,3.5154682E-1,1.4247327E-1,-7.872364E-2,1.2890111E-1,4.9602356E-2,-2.7261797E-1,-2.3147975E-1,-1.18927464E-1,1.1832367E-1,3.113253E-1,3.8498715E-2,-3.7794122E-1,2.6873386E-1,-1.0460931E-1,3.5064662E-1,1.1285098E-1],"split_indices":[3,0,0,4,0,4,0,8,0,4,2,8,7,6,0,3,0,0,1,1,0,0,7,0,0,15,0,13,3,12,3,0,0,0,0,0,0,0,0,0,0,0,0,0,0,0,0,0,0,0,0,0,0,0,0],"split_type":[0,0,0,0,0,0,0,0,0,0,0,0,0,0,0,0,0,0,0,0,0,0,0,0,0,0,0,0,0,0,0,0,0,0,0,0,0,0,0,0,0,0,0,0,0,0,0,0,0,0,0,0,0,0,0],"sum_hessian":[4.7376777E3,1.2245233E3,3.5131543E3,1.01440295E3,2.1012039E2,3.185797E3,3.2735718E2,4.2071863E2,5.936843E2,1.1681697E2,9.330341E1,1.2162963E3,1.9695009E3,2.1645258E2,1.1090462E2,2.730489E2,1.4766972E2,1.4123057E1,5.795613E2,1.1549307E2,1.323901E0,1.6553965E0,9.164802E1,1.0456196E3,1.7067662E2,1.7625484E2,1.793246E3,1.4853098E2,6.79216E1,4.8245907E1,6.2658707E1,1.7455403E2,9.849487E1,3.4718444E0,1.0651213E1,4.6907547E2,1.1048583E2,9.757698E1,1.7916094E1,8.979938E1,1.8486385E0,9.554932E2,9.012646E1,1.4222115E2,3.403369E1,2.65853E2,1.5273931E3,1.1260813E2,3.592285E1,5.4505665E1,1.3415933E1,4.3457596E1,4.7883086E0,6.1029285E1,1.6294227E0],"tree_param":{"num_deleted":"0","num_feature":"18","num_nodes":"55","size_leaf_vector":"1"}},{"base_weights":[-7.645156E-3,3.431681E-1,-1.4919536E-1,2.8167105E-1,9.996685E-1,-2.2435306E-1,3.1877005E-1,4.9367362E-1,1.4727099E-1,1.0249953E0,-6.673935E-2,-1.1362388E-2,-3.356509E-1,1.7784663E-1,8.737572E-1,2.1961728E-1,3.4053108E-1,1.11386366E-1,1.1151869E0,1.044175E0,3.8075992E-1,-2.0206562E-1,3.4103787E-1,-3.5200983E-1,5.4178953E-1,2.9759008E-1,-6.848197E-1,5.877176E-1,1.0743984E0,7.896514E-2,-2.4183328E-1,1.0311022E-1,-5.675291E-3,8.03643E-1,8.78033E-3,3.1574833E-1,6.946577E-2,-1.6236447E-2,2.2677712E-1,-2.952919E-1,-3.826271E-2,-1.7727453E-1,-8.575771E-2,-1.8712266E-3,5.2834934E-1,6.808199E-2,4.3015864E-1,-2.890789E-1,9.998161E-2,2.154254E-1,-7.7207714E-2,3.2730702E-1,9.6897535E-2],"categories":[],"categories_nodes":[],"categories_segments":[],"categories_sizes":[],"default_left":[0,0,0,0,0,0,0,0,0,0,0,0,0,0,0,0,0,0,0,0,0,0,0,0,0,0,0,0,0,0,0,0,0,0,0,0,0,0,0,0,0,0,0,0,0,0,0,0,0,0,0,0,0],"id":5,"left_children":[1,3,5,7,9,11,13,15,17,19,-1,21,23,25,27,29,-1,31,33,35,37,39,-1,41,43,45,47,49,51,-1,-1,-1,-1,-1,-1,-1,-1,-1,-1,-1,-1,-1,-1,-1,-1,-1,-1,-1,-1,-1,-1,-1,-1],"loss_changes":[2.1918112E2,5.0949448E1,1.1068013E2,3.3026466E1,3.5800095E0,6.4244E1,3.3913258E1,7.890494E1,2.4618774E1,9.155731E-1,0E0,2.0412535E2,2.5741516E1,3.6218494E1,4.416397E0,1.4376741E1,0E0,2.0833752E1,4.2974285E1,4.501114E-1,7.9897445E-1,4.647693E1,0E0,2.745726E1,2.2045538E1,2.4307657E1,1.24682255E1,4.4228497E0,2.7828598E-1,0E0,0E0,0E0,0E0,0E0,0E0,0E0,0E0,0E0,0E0,0E0,0E0,0E0,0E0,0E0,0E0,0E0,0E0,0E0,0E0,0E0,0E0,0E0,0E0],"parents":[2147483647,0,0,1,1,2,2,3,3,4,4,5,5,6,6,7,7,8,8,9,9,11,11,12,12,13,13,14,14,15,15,17,17,18,18,19,19,20,20,21,21,23,23,24,24,25,25,26,26,27,27,28,28],"right_children":[2,4,6,8,10,12,14,16,18,20,-1,22,24,26,28,30,-1,32,34,36,38,40,-1,42,44,46,48,50,52,-1,-1,-1,-1,-1,-1,-1,-1,-1,-1,-1,-1,-1,-1,-1,-1,-1,-1,-1,-1,-1,-1,-1,-1],"split_conditions":[-1.2993226E0,2.5339317E0,1.3701389E0,-7.571703E-1,1.5441561E0,-7.571703E-1,3.8596532E0,-7.9324925E-1,-1.3179964E0,1.541129E0,-6.673935E-2,-7.9324925E-1,2.3455575E0,9.4310486E-1,5.95191E0,-1.346007E0,3.4053108E-1,-4.5934778E-1,-7.07581E-1,1.6852266E0,1.6847727E0,-1.0098792E0,3.4103787E-1,-6.1773014E-1,1.723966E0,8.429297E-1,3.1921892E0,1.9928877E0,1.5577637E0,7.896514E-2,-2.4183328E-1,1.0311022E-1,-5.675291E-3,8.03643E-1,8.78033E-3,3.1574833E-1,6.946577E-2,-1.6236447E-2,2.2677712E-1,-2.952919E-1,-3.826271E-2,-1.7727453E-1,-8.575771E-2,-1.8712266E-3,5.2834934E-1,6.808199E-2,4.3015864E-1,-2.890789E-1,9.998161E-2,2.154254E-1,-7.7207714E-2,3.2730702E-1,9.6897535E-2],"split_indices":[3,0,0,4,2,4,0,8,3,4,0,8,2,2,0,3,0,2,1,7,4,3,0,3,9,2,0,12,3,0,0,0,0,0,0,0,0,0,0,0,0,0,0,0,0,0,0,0,0,0,0,0,0],"split_type":[0,0,0,0,0,0,0,0,0,0,0,0,0,0,0,0,0,0,0,0,0,0,0,0,0,0,0,0,0,0,0,0,0,0,0,0,0,0,0,0,0,0,0,0,0,0,0,0,0,0,0,0,0],"sum_hessian":[4.4118096E3,1.2679473E3,3.1438623E3,1.1606532E3,1.0729406E2,2.7092612E3,4.3460104E2,4.4928235E2,7.113708E2,1.05273735E2,2.020328E0,9.302136E2,1.7790477E3,3.4764642E2,8.695462E1,3.157275E2,1.3355482E2,6.870154E2,2.4355412E1,1.01627365E2,3.6463664E0,7.984232E2,1.3179036E2,1.7470742E3,3.1973507E1,3.0584787E2,4.179855E1,3.746817E1,4.948645E1,3.0356738E2,1.2160124E1,2.4628502E2,4.4073038E2,9.380911E0,1.4974501E1,1.0030528E2,1.3220843E0,2.085102E0,1.5612643E0,6.838676E1,7.300365E2,3.7712936E2,1.3699448E3,2.2745722E1,9.227787E0,2.8907382E2,1.6774054E1,3.28555E1,8.943052E0,3.259078E1,4.8773932E0,4.797307E1,1.5133809E0],"tree_param":{"num_deleted":"0","num_feature":"18","num_nodes":"53","size_leaf_vector":"1"}},{"base_weights":[-3.8204282E-3,2.9835477E-1,-1.0288356E-1,2.3515049E-1,8.309232E-1,3.659532E-2,-2.6892507E-1,4.001503E-1,1.3460374E-1,8.7021303E-1,-4.8763472E-1,-5.1787563E-2,3.3786348E-1,-7.074106E-1,-2.1654138E-1,1.6786437E-1,3.265515E-1,2.0313556E-1,-1.8200094E-1,6.1287814E-1,1.0057322E0,-3.5844594E-1,1.8399814E-1,-2.2488457E-1,8.527208E-2,-1.4272626E-1,-9.7410977E-1,1.759812E-1,-3.283514E-1,-2.1295254E-1,6.762626E-2,-2.2415121E-1,6.916156E-2,5.8655646E-3,-5.614796E-1,2.5292018E-1,-7.1049356E-3,5.5058673E-2,3.054471E-1,-3.9037663E-2,-2.2637697E-1,-1.2180342E-1,5.7313103E-2,3.0355462E-1,-2.4535173E-1,-3.4886098E-1,2.4111535E-1,1.1757091E-2,4.5393497E-1,-2.9731277E-1,-7.594411E-2],"categories":[],"categories_nodes":[],"categories_segments":[],"categories_sizes":[],"default_left":[0,0,0,0,0,0,0,0,0,0,0,0,0,0,0,0,0,0,0,0,0,0,0,0,0,0,0,0,0,0,0,0,0,0,0,0,0,0,0,0,0,0,0,0,0,0,0,0,0,0,0],"id":6,"left_children":[1,3,5,7,9,11,13,15,17,19,21,23,-1,25,27,29,-1,31,33,35,37,-1,-1,39,41,43,45,47,49,-1,-1,-1,-1,-1,-1,-1,-1,-1,-1,-1,-1,-1,-1,-1,-1,-1,-1,-1,-1,-1,-1],"loss_changes":[1.245645E2,3.4387108E1,7.258716E1,1.5205616E1,6.0504E0,1.6416205E2,3.2711678E1,5.5422844E1,1.2470209E1,3.0737991E0,3.6783695E0,3.7436077E1,0E0,2.278978E1,5.6214893E1,1.3355305E1,0E0,1.2451548E1,3.4939777E1,5.7437344E0,5.052948E-1,0E0,0E0,3.4898205E1,4.5853363E1,3.980993E1,3.5579323E1,5.1946423E1,4.939843E1,0E0,0E0,0E0,0E0,0E0,0E0,0E0,0E0,0E0,0E0,0E0,0E0,0E0,0E0,0E0,0E0,0E0,0E0,0E0,0E0,0E0,0E0],"parents":[2147483647,0,0,1,1,2,2,3,3,4,4,5,5,6,6,7,7,8,8,9,9,10,10,11,11,13,13,14,14,15,15,17,17,18,18,19,19,20,20,23,23,24,24,25,25,26,26,27,27,28,28],"right_children":[2,4,6,8,10,12,14,16,18,20,22,24,-1,26,28,30,-1,32,34,36,38,-1,-1,40,42,44,46,48,50,-1,-1,-1,-1,-1,-1,-1,-1,-1,-1,-1,-1,-1,-1,-1,-1,-1,-1,-1,-1,-1,-1],"split_conditions":[-1.4020283E0,1.7921646E0,-3.895178E-2,-7.571703E-1,1.5441561E0,-6.928352E-2,-6.929452E-1,-7.9324925E-1,1.999141E0,2.8367043E0,-1.504734E0,-2.9074088E-1,3.3786348E-1,-7.629518E-1,-4.908682E-1,-7.052568E-1,3.265515E-1,-7.4482733E-1,8.429297E-1,8.229105E-1,-1.66145E0,-3.5844594E-1,1.8399814E-1,1.212299E0,-8.044678E-1,-1.3657907E-1,1.9861505E0,-5.0884825E-1,-3.9385536E-1,-2.1295254E-1,6.762626E-2,-2.2415121E-1,6.916156E-2,5.8655646E-3,-5.614796E-1,2.5292018E-1,-7.1049356E-3,5.5058673E-2,3.054471E-1,-3.9037663E-2,-2.2637697E-1,-1.2180342E-1,5.7313103E-2,3.0355462E-1,-2.4535173E-1,-3.4886098E-1,2.4111535E-1,1.1757091E-2,4.5393497E-1,-2.9731277E-1,-7.594411E-2],"split_indices":[3,0,4,4,2,8,0,8,15,0,3,0,0,0,0,0,0,0,2,4,2,0,0,3,3,6,6,0,0,0,0,0,0,0,0,0,0,0,0,0,0,0,0,0,0,0,0,0,0,0,0],"split_type":[0,0,0,0,0,0,0,0,0,0,0,0,0,0,0,0,0,0,0,0,0,0,0,0,0,0,0,0,0,0,0,0,0,0,0,0,0,0,0,0,0,0,0,0,0,0,0,0,0,0,0],"sum_hessian":[4.1592207E3,1.0263878E3,3.132833E3,9.187891E2,1.07598724E2,1.7030278E3,1.429805E3,3.4676276E2,5.7202637E2,1.04815506E2,2.7832198E0,1.5761342E3,1.2689371E2,1.5124887E2,1.2785562E3,2.602014E2,8.6561356E1,4.705337E2,1.014927E2,3.806224E1,6.6753265E1,1.6427652E0,1.1404548E0,6.962178E2,8.7991644E2,4.9011528E1,1.0223735E2,2.8332736E2,9.952288E2,1.531548E1,2.4488591E2,1.2451801E1,4.5808188E2,9.155901E1,9.933684E0,2.7715527E1,1.0346713E1,1.2285181E0,6.552475E1,5.9162714E2,1.0459059E2,1.5537918E2,7.2453723E2,1.7900091E1,3.1111437E1,9.273694E1,9.500406E0,2.5796634E2,2.5361023E1,1.0018995E2,8.950389E2],"tree_param":{"num_deleted":"0","num_feature":"18","num_nodes":"51","size_leaf_vector":"1"}},{"base_weights":[-3.41934E-3,-3.378972E-2,7.3689777E-1,1.705734E-1,-1.1604434E-1,5.554535E-1,1.0313209E0,2.3846197E-1,-1.1974768E-1,-2.0774193E-2,-2.3102157E-1,-7.7819014E-1,6.4267457E-1,3.1336114E-1,9.3931615E-2,3.98906E-1,1.1791085E-1,1.3907085E-1,-1.5395403E0,-7.849586E-2,3.223004E-1,5.644255E-1,-2.5762513E-1,2.059619E-1,-1.4106022E0,6.895303E-1,-8.520765E-1,8.305191E-2,3.1673366E-1,-1.5578797E-1,5.926217E-2,8.7541044E-2,-1.3136761E-1,-5.3682935E-1,5.360741E-3,-2.462625E-1,-1.4802334E-2,7.136618E-1,-1.2501913E-1,-1.2247447E-1,-3.6090065E-2,-6.026401E-1,5.7979193E-2,2.2713085E-1,4.4964388E-2,-1.7479874E-2,-3.8902876E-1],"categories":[],"categories_nodes":[],"categories_segments":[],"categories_sizes":[],"default_left":[0,0,0,0,0,0,0,0,0,0,0,0,0,0,0,0,0,0,0,0,0,0,0,0,0,0,0,0,0,0,0,0,0,0,0,0,0,0,0,0,0,0,0,0,0,0,0],"id":7,"left_children":[1,3,5,7,9,11,13,15,17,19,21,23,25,-1,-1,27,29,31,33,35,-1,37,39,-1,41,43,45,-1,-1,-1,-1,-1,-1,-1,-1,-1,-1,-1,-1,-1,-1,-1,-1,-1,-1,-1,-1],"loss_changes":[8.987074E1,6.456151E1,7.841835E0,2.1754051E1,2.9989601E1,1.2088491E1,2.3195267E-1,1.7238903E1,7.722564E1,9.4809944E1,2.6400536E1,7.052253E0,7.174965E0,0E0,0E0,3.0417171E1,2.6067274E1,1.582892E1,1.2639969E1,3.0790123E1,0E0,7.302961E1,2.4797379E1,0E0,5.1034184E0,3.2322083E0,1.0914526E0,0E0,0E0,0E0,0E0,0E0,0E0,0E0,0E0,0E0,0E0,0E0,0E0,0E0,0E0,0E0,0E0,0E0,0E0,0E0,0E0],"parents":[2147483647,0,0,1,1,2,2,3,3,4,4,5,5,6,6,7,7,8,8,9,9,10,10,11,11,12,12,15,15,16,16,17,17,18,18,19,19,21,21,22,22,24,24,25,25,26,26],"right_children":[2,4,6,8,10,12,14,16,18,20,22,24,26,-1,-1,28,30,32,34,36,-1,38,40,-1,42,44,46,-1,-1,-1,-1,-1,-1,-1,-1,-1,-1,-1,-1,-1,-1,-1,-1,-1,-1,-1,-1],"split_conditions":[3.1921892E0,-1.2993226E0,5.95191E0,1.4057728E0,-3.895178E-2,-1.3724219E0,1.5577637E0,-4.698829E-1,1.7307693E0,-6.928352E-2,-1.8618004E0,-1.4580497E0,1.9861505E0,3.1336114E-1,9.3931615E-2,-5.0366294E-1,-1.6167767E0,1.4179806E0,1.9861505E0,-1.66145E0,3.223004E-1,-4.3099245E-1,2.2258939E-1,2.059619E-1,2.015133E0,2.015133E0,-1.318536E0,8.305191E-2,3.1673366E-1,-1.5578797E-1,5.926217E-2,8.7541044E-2,-1.3136761E-1,-5.3682935E-1,5.360741E-3,-2.462625E-1,-1.4802334E-2,7.136618E-1,-1.2501913E-1,-1.2247447E-1,-3.6090065E-2,-6.026401E-1,5.7979193E-2,2.2713085E-1,4.4964388E-2,-1.7479874E-2,-3.8902876E-1],"split_indices":[0,3,0,1,4,8,3,4,10,8,2,3,6,0,0,8,3,16,6,2,0,3,3,0,13,13,7,0,0,0,0,0,0,0,0,0,0,0,0,0,0,0,0,0,0,0,0],"split_type":[0,0,0,0,0,0,0,0,0,0,0,0,0,0,0,0,0,0,0,0,0,0,0,0,0,0,0,0,0,0,0,0,0,0,0,0,0,0,0,0,0,0,0,0,0,0,0],"sum_hessian":[3.9950415E3,3.8385264E3,1.5651532E2,1.1012864E3,2.73724E3,9.862329E1,5.7892036E1,8.9271326E2,2.0857307E2,1.4975503E3,1.2396897E3,5.5677805E0,9.305551E1,5.639986E1,1.4921758E0,3.8199673E2,5.1071655E2,1.7717697E2,3.1396107E1,1.4234504E3,7.409978E1,3.946512E1,1.2002245E3,1.6532042E0,3.914576E0,9.07495E1,2.3060122E0,3.2333334E2,5.8663395E1,5.611977E1,4.5459677E2,1.4048283E2,3.6694134E1,2.6926666E1,4.4694395E0,5.276322E1,1.3706873E3,1.3350864E1,2.6114254E1,5.7145667E2,6.287679E2,2.66728E0,1.2472961E0,8.029265E1,1.0456849E1,1.23408E0,1.0719322E0],"tree_param":{"num_deleted":"0","num_feature":"18","num_nodes":"47","size_leaf_vector":"1"}},{"base_weights":[-1.7456168E-3,-2.1047477E-2,7.9202235E-1,1.387718E-1,-7.994198E-2,5.8584106E-1,9.8617387E-1,2.7692825E-1,5.003547E-2,-4.326962E-1,-4.8322454E-2,-2.3039205E-1,6.7084765E-1,3.066608E-1,4.451619E-1,1.2743656E-1,3.1509066E-1,-9.258557E-2,1.857218E-1,-7.4902934E-1,2.1026342E-3,-2.1818696E-2,-4.2997086E-1,1.338141E-1,-7.8743386E-1,7.1495587E-1,-1.09890394E-1,-3.4515105E-2,2.2244345E-1,1.4446539E-1,3.8301435E-3,1.5082504E-1,-6.3484274E-2,8.332548E-2,-7.922852E-2,1.1975708E-1,-2.6521584E-1,-4.9688272E-2,9.482336E-1,1.9312158E-2,-4.283074E-2,1.436439E-2,-3.017981E-1,1.7827801E-1,-5.343533E-1,2.2479574E-1,-6.617019E-2],"categories":[],"categories_nodes":[],"categories_segments":[],"categories_sizes":[],"default_left":[0,0,0,0,0,0,0,0,0,0,0,0,0,0,0,0,0,0,0,0,0,0,0,0,0,0,0,0,0,0,0,0,0,0,0,0,0,0,0,0,0,0,0,0,0,0,0],"id":8,"left_children":[1,3,5,7,9,11,13,15,17,19,21,23,25,-1,27,29,-1,31,33,35,37,39,41,-1,43,45,-1,-1,-1,-1,-1,-1,-1,-1,-1,-1,-1,-1,-1,-1,-1,-1,-1,-1,-1,-1,-1],"loss_changes":[5.9083755E1,3.5446285E1,3.0869522E0,1.24186535E1,3.0670135E1,3.406067E0,4.3546295E-1,4.5694252E1,1.1990495E1,3.1117134E1,2.5545103E1,2.29722E0,2.2151527E0,0E0,8.5288304E-1,1.35287E1,0E0,2.152931E1,1.3212668E1,2.0655884E1,5.1528336E1,2.4647354E1,4.5189377E1,0E0,5.443715E0,1.4927864E0,0E0,0E0,0E0,0E0,0E0,0E0,0E0,0E0,0E0,0E0,0E0,0E0,0E0,0E0,0E0,0E0,0E0,0E0,0E0,0E0,0E0],"parents":[2147483647,0,0,1,1,2,2,3,3,4,4,5,5,6,6,7,7,8,8,9,9,10,10,11,11,12,12,14,14,15,15,17,17,18,18,19,19,20,20,21,21,22,22,24,24,25,25],"right_children":[2,4,6,8,10,12,14,16,18,20,22,24,26,-1,28,30,-1,32,34,36,38,40,42,-1,44,46,-1,-1,-1,-1,-1,-1,-1,-1,-1,-1,-1,-1,-1,-1,-1,-1,-1,-1,-1,-1,-1],"split_conditions":[3.8596532E0,-1.3553439E0,5.95191E0,-6.1352664E-1,-7.08795E-1,-1.2276287E0,1.1469408E0,-6.484561E-1,-1.8004446E-1,7.0132154E-1,1.5739762E0,-6.830883E-1,1.9861505E0,3.066608E-1,-2.0603137E-1,-7.5987333E-1,3.1509066E-1,-1.2072856E0,1.9863515E0,-1.1779431E0,1.6417956E0,2.4187855E-1,2.3192628E-1,1.338141E-1,-7.07581E-1,1.7964771E0,-1.09890394E-1,-3.4515105E-2,2.2244345E-1,1.4446539E-1,3.8301435E-3,1.5082504E-1,-6.3484274E-2,8.332548E-2,-7.922852E-2,1.1975708E-1,-2.6521584E-1,-4.9688272E-2,9.482336E-1,1.9312158E-2,-4.283074E-2,1.436439E-2,-3.017981E-1,1.7827801E-1,-5.343533E-1,2.2479574E-1,-6.617019E-2],"split_indices":[0,3,0,4,0,8,3,8,0,1,7,3,6,0,7,2,0,7,14,3,3,2,3,0,1,7,0,0,0,0,0,0,0,0,0,0,0,0,0,0,0,0,0,0,0,0,0],"split_type":[0,0,0,0,0,0,0,0,0,0,0,0,0,0,0,0,0,0,0,0,0,0,0,0,0,0,0,0,0,0,0,0,0,0,0,0,0,0,0,0,0,0,0,0,0,0,0],"sum_hessian":[3.8542524E3,3.7637048E3,9.05476E1,1.0131124E3,2.7505925E3,4.5861702E1,4.4685894E1,3.9539243E2,6.1772E2,2.25227E2,2.5253655E3,4.1644444E0,4.1697258E1,4.1061943E1,3.6239514E0,3.3232034E2,6.3072094E1,3.0131885E2,3.1640112E2,1.2995613E2,9.5270874E1,2.362367E3,1.6299855E2,1.9706545E0,2.1937902E0,4.0294262E1,1.4029955E0,1.4653355E0,2.158616E0,8.050635E1,2.5181398E2,4.9669136E1,2.5164972E2,2.629796E2,5.3421513E1,1.34681835E1,1.16487946E2,9.136674E1,3.90414E0,1.3796552E3,9.827118E2,8.959223E1,7.340631E1,1.0859258E0,1.1078643E0,3.9058617E1,1.2356477E0],"tree_param":{"num_deleted":"0","num_feature":"18","num_nodes":"47","size_leaf_vector":"1"}},{"base_weights":[-1.1991665E-3,-4.7795787E-2,2.4565586E-1,-1.10126756E-1,7.372903E-2,3.2705376E-1,-1.8692443E-1,1.0506439E-1,-2.1913877E-1,-4.1472666E-2,3.933043E-1,4.4375956E-1,6.068021E-2,3.1792578E-1,-6.829144E-1,4.9864987E-1,-5.2420978E-2,-3.601216E-2,-3.4929913E-1,-8.130646E-2,1.6338006E0,8.9329444E-2,8.859213E-1,4.9531376E-1,-6.1608845E-1,-2.2265442E-1,7.149762E-1,7.306996E-1,-1.1404127E0,-1.0958238E0,2.744405E-1,2.0284256E-1,-8.589728E-2,6.352622E-2,-1.2634782E-1,1.0604437E-1,-4.9260978E-2,-1.8165115E-3,-1.3813627E-1,4.2655118E-2,-7.962674E-2,-3.080629E-1,7.894178E-1,-3.565864E-2,4.4984126E-1,5.50152E-1,1.5499859E-1,-3.4112826E-1,1.5508398E-1,1.04639344E-1,-3.0730388E-1,2.7698046E-1,-1.714305E-1,3.9820984E-1,1.6621007E-2,7.7692242E-3,4.6567407E-1,-5.587685E-1,9.457112E-2,-4.16203E-1,4.1761282E-1,2.5597143E-1,-2.8537703E-1],"categories":[],"categories_nodes":[],"categories_segments":[],"categories_sizes":[],"default_left":[0,0,0,0,0,0,0,0,0,0,0,0,0,0,0,0,0,0,0,0,0,0,0,0,0,0,0,0,0,0,0,0,0,0,0,0,0,0,0,0,0,0,0,0,0,0,0,0,0,0,0,0,0,0,0,0,0,0,0,0,0,0,0],"id":9,"left_children":[1,3,5,7,9,11,13,15,17,19,21,23,25,27,29,31,33,35,37,39,41,43,45,47,49,51,53,55,57,59,61,-1,-1,-1,-1,-1,-1,-1,-1,-1,-1,-1,-1,-1,-1,-1,-1,-1,-1,-1,-1,-1,-1,-1,-1,-1,-1,-1,-1,-1,-1,-1,-1],"loss_changes":[4.3427963E1,2.406528E1,2.1170319E1,4.9277412E1,3.967841E1,1.56698265E1,2.4150078E1,4.3828564E1,3.3213905E1,5.303621E1,4.2679924E1,1.9480385E1,2.8890957E1,2.975683E1,1.948471E1,2.8344372E1,4.9342854E1,2.9030405E1,3.1081047E1,3.1940216E1,5.1698986E1,5.2346573E1,3.71537E1,1.2425499E1,6.9454794E0,4.4057697E1,1.8939148E1,2.1996693E1,1.2140012E1,2.6667389E1,1.1753588E1,0E0,0E0,0E0,0E0,0E0,0E0,0E0,0E0,0E0,0E0,0E0,0E0,0E0,0E0,0E0,0E0,0E0,0E0,0E0,0E0,0E0,0E0,0E0,0E0,0E0,0E0,0E0,0E0,0E0,0E0,0E0,0E0],"parents":[2147483647,0,0,1,1,2,2,3,3,4,4,5,5,6,6,7,7,8,8,9,9,10,10,11,11,12,12,13,13,14,14,15,15,16,16,17,17,18,18,19,19,20,20,21,21,22,22,23,23,24,24,25,25,26,26,27,27,28,28,29,29,30,30],"right_children":[2,4,6,8,10,12,14,16,18,20,22,24,26,28,30,32,34,36,38,40,42,44,46,48,50,52,54,56,58,60,62,-1,-1,-1,-1,-1,-1,-1,-1,-1,-1,-1,-1,-1,-1,-1,-1,-1,-1,-1,-1,-1,-1,-1,-1,-1,-1,-1,-1,-1,-1,-1,-1],"split_conditions":[1.0802919E0,1.4179806E0,1.9928877E0,-6.510332E-1,6.800967E-1,1.4179806E0,-2.8160232E-1,-1.3657907E-1,-3.1297354E-3,1.7964771E0,-4.959885E-2,1.4737318E0,9.0647334E-1,1.7337013E0,2.8367043E0,1.999141E0,-5.751712E-2,-1.0828356E0,-1.4113653E0,-3.9746583E-1,4.1528173E-2,1.3974853E0,9.496362E-2,-1.9619757E0,-1.3317451E0,-1.3317451E0,-3.1297354E-3,3.650959E-1,3.1921892E0,1.6604694E0,-3.262392E-1,2.0284256E-1,-8.589728E-2,6.352622E-2,-1.2634782E-1,1.0604437E-1,-4.9260978E-2,-1.8165115E-3,-1.3813627E-1,4.2655118E-2,-7.962674E-2,-3.080629E-1,7.894178E-1,-3.565864E-2,4.4984126E-1,5.50152E-1,1.5499859E-1,-3.4112826E-1,1.5508398E-1,1.04639344E-1,-3.0730388E-1,2.7698046E-1,-1.714305E-1,3.9820984E-1,1.6621007E-2,7.7692242E-3,4.6567407E-1,-5.587685E-1,9.457112E-2,-4.16203E-1,4.1761282E-1,2.5597143E-1,-2.8537703E-1],"split_indices":[0,16,12,7,3,16,3,6,1,7,0,3,7,11,0,15,3,8,3,0,2,4,0,2,4,4,1,8,0,3,4,0,0,0,0,0,0,0,0,0,0,0,0,0,0,0,0,0,0,0,0,0,0,0,0,0,0,0,0,0,0,0,0],"split_type":[0,0,0,0,0,0,0,0,0,0,0,0,0,0,0,0,0,0,0,0,0,0,0,0,0,0,0,0,0,0,0,0,0,0,0,0,0,0,0,0,0,0,0,0,0,0,0,0,0,0,0,0,0,0,0,0,0,0,0,0,0,0,0],"sum_hessian":[3.773467E3,3.1749639E3,5.9850323E2,2.0986465E3,1.0763173E3,5.0392453E2,9.457868E1,7.0567365E2,1.3929728E3,7.91768E2,2.845493E2,3.4994E2,1.5398454E2,4.7048615E1,4.753007E1,2.0104877E2,5.0462488E2,5.7926447E2,8.137084E2,7.7430835E2,1.745964E1,1.7669748E2,1.0785182E2,3.342154E2,1.5724588E1,1.0791361E2,4.6070923E1,3.7058407E1,9.990207E0,3.3106518E1,1.44235525E1,1.6408568E2,3.696308E1,2.942449E2,2.1037997E2,1.4300461E2,4.362599E2,1.9930724E2,6.144011E2,3.4985852E2,4.2444983E2,4.753153E0,1.2706487E1,1.5476402E2,2.1933464E1,2.912341E1,7.872841E1,3.6967485E0,3.3051865E2,4.718475E0,1.1006114E1,2.4796684E1,8.311693E1,2.3364943E1,2.270598E1,2.0501646E1,1.655676E1,6.4906497E0,3.4995568E0,3.0030056E1,3.0764613E0,1.0003557E1,4.4199953E0],"tree_param":{"num_deleted":"0","num_feature":"18","num_nodes":"63","size_leaf_vector":"1"}},{"base_weights":[-4.1782074E-3,-1.7133782E-2,6.75314E-1,-2.894004E-1,4.426961E-3,4.2833254E-1,9.380155E-1,-8.9612946E-2,-7.1838695E-1,1.2013052E-1,-5.8601562E-2,8.54132E-1,1.5885916E-1,3.031965E-1,5.4371583E-1,5.6033235E-2,-3.3600673E-1,2.0032133E-1,-1.0208465E0,-1.1767026E-2,3.2317805E-1,-7.754955E-2,4.261426E-1,4.592174E-2,9.0883595E-1,-6.7244075E-2,6.8305403E-1,7.6666546E-1,-7.6827444E-2,5.3229887E-2,-3.3442765E-1,-3.9140955E-1,2.1176672E-1,1.5031776E-1,-3.4765428E-1,8.744337E-3,-2.418495E-1,-1.574036E-2,-1.3961734E-1,2.367997E-1,-1.9688958E-1,2.9144776E-1,7.5644E-2,-2.9031226E-1,1.1104711E-1,-8.986717E-2,2.746782E-1,2.644191E-1,7.538761E-2],"categories":[],"categories_nodes":[],"categories_segments":[],"categories_sizes":[],"default_left":[0,0,0,0,0,0,0,0,0,0,0,0,0,0,0,0,0,0,0,0,0,0,0,0,0,0,0,0,0,0,0,0,0,0,0,0,0,0,0,0,0,0,0,0,0,0,0,0,0],"id":10,"left_children":[1,3,5,7,9,11,13,15,17,19,21,23,25,-1,27,29,-1,31,33,35,-1,37,39,-1,41,43,45,47,-1,-1,-1,-1,-1,-1,-1,-1,-1,-1,-1,-1,-1,-1,-1,-1,-1,-1,-1,-1,-1],"loss_changes":[3.278934E1,2.1455357E1,4.119791E0,2.292141E1,2.4710852E1,4.1968894E0,3.9364052E-1,2.7694542E1,2.3844051E1,1.5086131E2,2.0181095E1,4.1337395E-1,2.9323168E0,0E0,1.4957423E0,2.3261854E1,0E0,1.7589783E1,1.4057182E1,3.418945E1,0E0,2.0519812E1,3.3019485E1,0E0,2.9656124E-1,7.4180775E0,1.9716501E0,1.3027167E-1,0E0,0E0,0E0,0E0,0E0,0E0,0E0,0E0,0E0,0E0,0E0,0E0,0E0,0E0,0E0,0E0,0E0,0E0,0E0,0E0,0E0],"parents":[2147483647,0,0,1,1,2,2,3,3,4,4,5,5,6,6,7,7,8,8,9,9,10,10,11,11,12,12,14,14,15,15,17,17,18,18,19,19,21,21,22,22,24,24,25,25,26,26,27,27],"right_children":[2,4,6,8,10,12,14,16,18,20,22,24,26,-1,28,30,-1,32,34,36,-1,38,40,-1,42,44,46,48,-1,-1,-1,-1,-1,-1,-1,-1,-1,-1,-1,-1,-1,-1,-1,-1,-1,-1,-1,-1,-1],"split_conditions":[3.8596532E0,-7.08795E-1,5.95191E0,-7.381841E-1,-7.571703E-1,-1.3179964E0,5.493803E-1,1.2538416E0,-1.0960351E0,-7.9324925E-1,1.9448568E0,-1.0960351E0,1.999141E0,3.031965E-1,1.7307693E0,1.2436304E0,-3.3600673E-1,-3.1297354E-3,-1.4753889E0,1.5017425E0,3.2317805E-1,1.5739762E0,1.6294841E-1,4.592174E-2,1.4627256E0,-7.619089E-2,-1.5882221E-1,3.9197934E-1,-7.6827444E-2,5.3229887E-2,-3.3442765E-1,-3.9140955E-1,2.1176672E-1,1.5031776E-1,-3.4765428E-1,8.744337E-3,-2.418495E-1,-1.574036E-2,-1.3961734E-1,2.367997E-1,-1.9688958E-1,2.9144776E-1,7.5644E-2,-2.9031226E-1,1.1104711E-1,-8.986717E-2,2.746782E-1,2.644191E-1,7.538761E-2],"split_indices":[0,0,0,0,4,3,3,4,7,8,2,7,15,0,10,2,0,1,4,3,0,7,0,0,7,3,2,4,0,0,0,0,0,0,0,0,0,0,0,0,0,0,0,0,0,0,0,0,0],"split_type":[0,0,0,0,0,0,0,0,0,0,0,0,0,0,0,0,0,0,0,0,0,0,0,0,0,0,0,0,0,0,0,0,0,0,0,0,0,0,0,0,0,0,0,0,0,0,0,0,0],"sum_hessian":[3.7223882E3,3.6536995E3,6.868867E1,2.6719305E2,3.3865066E3,3.6759415E1,3.1929249E1,1.8311958E2,8.407349E1,1.1939065E3,2.1925999E3,1.3406283E1,2.335313E1,2.5642183E1,6.287066E0,1.6127002E2,2.1849554E1,2.090701E1,6.3166477E1,1.0501746E3,1.4373193E2,2.1109268E3,8.167321E1,1.2453012E0,1.2160982E1,1.6924662E1,6.4284687E0,4.94896E0,1.3381058E0,1.4688765E2,1.4382366E1,4.8596625E0,1.6047346E1,5.0328016E0,5.8133675E1,9.996517E2,5.0522926E1,1.9837717E3,1.2715507E2,6.1356983E1,2.0316223E1,1.066411E1,1.4968722E0,5.1369624E0,1.17877E1,1.1750455E0,5.2534227E0,3.4669447E0,1.4820154E0],"tree_param":{"num_deleted":"0","num_feature":"18","num_nodes":"49","size_leaf_vector":"1"}},{"base_weights":[-2.5055248E-3,-1.2509186E-2,6.0262424E-1,-2.3032102E-1,5.3616865E-3,3.6392817E-1,8.931782E-1,2.5106303E-2,-1.0934027E0,4.698724E-1,-1.2438671E-2,5.2713186E-1,-2.4843732E-1,2.9587796E-1,4.7216353E-1,-4.4335153E-2,2.1653779E0,-6.0859483E-1,-3.535389E-1,-2.1113707E-3,1.5579323E0,1.0795826E-1,-5.1104687E-2,7.980422E-1,1.573795E-1,-1.3064848E0,5.3571725E-1,-6.66999E-2,6.966289E-1,1.8231916E-1,-9.262185E-2,-1.3622537E-1,1.0720946E0,-2.7739576E-1,1.9990997E-1,4.6178758E-1,-1.3263941E-1,5.6855935E-1,-1.13214396E-1,1.701986E-2,1.3780884E-1,-6.279627E-2,1.2123879E-2,-9.089178E-3,3.065673E-1,2.1309635E-1,-1.8779089E-1,-3.579967E-2,-6.400306E-1,-2.351253E-2,2.3703466E-1,2.170974E-2,2.537787E-1],"categories":[],"categories_nodes":[],"categories_segments":[],"categories_sizes":[],"default_left":[0,0,0,0,0,0,0,0,0,0,0,0,0,0,0,0,0,0,0,0,0,0,0,0,0,0,0,0,0,0,0,0,0,0,0,0,0,0,0,0,0,0,0,0,0,0,0,0,0,0,0,0,0],"id":11,"left_children":[1,3,5,7,9,11,13,15,17,19,21,23,25,-1,27,29,31,33,-1,35,37,39,41,43,45,47,49,-1,51,-1,-1,-1,-1,-1,-1,-1,-1,-1,-1,-1,-1,-1,-1,-1,-1,-1,-1,-1,-1,-1,-1,-1,-1],"loss_changes":[2.2068188E1,1.3959642E1,3.7866478E0,5.99765E1,2.7416214E1,3.552413E0,5.5521965E-1,3.142754E1,1.8445892E0,6.284722E1,1.487296E1,2.6141667E0,7.2408514E0,0E0,1.1892378E0,3.556017E1,2.6135288E1,5.1859508E0,0E0,5.9245853E1,2.488166E1,1.3954486E1,3.502034E1,2.9124012E0,5.9938354E0,3.325357E0,8.800937E-1,0E0,4.2869163E-1,0E0,0E0,0E0,0E0,0E0,0E0,0E0,0E0,0E0,0E0,0E0,0E0,0E0,0E0,0E0,0E0,0E0,0E0,0E0,0E0,0E0,0E0,0E0,0E0],"parents":[2147483647,0,0,1,1,2,2,3,3,4,4,5,5,6,6,7,7,8,8,9,9,10,10,11,11,12,12,14,14,15,15,16,16,17,17,19,19,20,20,21,21,22,22,23,23,24,24,25,25,26,26,28,28],"right_children":[2,4,6,8,10,12,14,16,18,20,22,24,26,-1,28,30,32,34,-1,36,38,40,42,44,46,48,50,-1,52,-1,-1,-1,-1,-1,-1,-1,-1,-1,-1,-1,-1,-1,-1,-1,-1,-1,-1,-1,-1,-1,-1,-1,-1],"split_conditions":[3.8596532E0,-1.3609245E0,5.95191E0,5.493803E-1,-1.1605741E0,1.7307693E0,5.493803E-1,4.7468525E-1,7.3611796E-1,1.0177238E0,-1.4020283E0,-3.895178E-2,1.0469193E-1,2.9587796E-1,-5.3978276E-1,-2.0621507E0,1.7337013E0,2.163391E0,-3.535389E-1,-1.318536E0,1.5739762E0,1.3786479E0,-2.4425478E-1,-1.2276287E0,-8.138047E-1,-9.8478466E-1,1.2772003E-1,-6.66999E-2,1.1189302E0,1.8231916E-1,-9.262185E-2,-1.3622537E-1,1.0720946E0,-2.7739576E-1,1.9990997E-1,4.6178758E-1,-1.3263941E-1,5.6855935E-1,-1.13214396E-1,1.701986E-2,1.3780884E-1,-6.279627E-2,1.2123879E-2,-9.089178E-3,3.065673E-1,2.1309635E-1,-1.8779089E-1,-3.579967E-2,-6.400306E-1,-2.351253E-2,2.3703466E-1,2.170974E-2,2.537787E-1],"split_indices":[0,2,0,3,2,10,3,3,3,7,3,4,4,0,7,2,11,0,0,7,7,8,3,8,3,7,7,0,3,0,0,0,0,0,0,0,0,0,0,0,0,0,0,0,0,0,0,0,0,0,0,0,0],"split_type":[0,0,0,0,0,0,0,0,0,0,0,0,0,0,0,0,0,0,0,0,0,0,0,0,0,0,0,0,0,0,0,0,0,0,0,0,0,0,0,0,0,0,0,0,0,0,0,0,0,0,0,0,0],"sum_hessian":[3.6432722E3,3.5849866E3,5.8285637E1,2.7093372E2,3.314053E3,3.3234966E1,2.505067E1,2.0981136E2,6.112235E1,1.2137241E2,3.1926807E3,2.63512E1,6.8837657E0,1.9415533E1,5.6351366E0,2.0416643E2,5.644927E0,1.0340529E1,5.078182E1,8.534787E1,3.6024544E1,7.7566113E2,2.4170195E3,1.4539835E1,1.1811365E1,2.6466184E0,4.2371473E0,1.3787577E0,4.256379E0,5.8528004E1,1.4563843E2,2.2106156E0,3.4343114E0,8.506552E0,1.8339782E0,1.8398642E1,6.694923E1,3.0695919E1,5.328624E0,6.779898E2,9.767134E1,8.8527075E2,1.5317487E3,3.2772431E0,1.1262591E1,6.978609E0,4.8327565E0,1.556477E0,1.0901414E0,1.4438225E0,2.7933245E0,1.1080455E0,3.1483335E0],"tree_param":{"num_deleted":"0","num_feature":"18","num_nodes":"53","size_leaf_vector":"1"}},{"base_weights":[-2.9218418E-3,-7.84459E-3,8.454747E-1,1.5503826E-2,-1.6781962E-1,9.185827E-1,2.3448569E-1,5.2032396E-3,2.4043264E0,-4.286807E-1,1.1070496E-1,2.9042494E-1,5.4761577E-2,-9.352693E-2,1.9438028E-1,1.1414968E-2,-1.2578286E0,3.8207068E0,4.0810842E-2,-3.5413247E-1,-2.2090703E-1,1.299068E0,-1.4481117E-1,1.9336707E-3,4.3357652E-1,-3.9567745E-1,-8.93546E-2,1.3678621E0,-8.654136E-2,-2.67545E-1,3.2610646E-1,5.8058757E-1,-8.510224E-2,6.7827624E-1,-7.0117223E-3,5.7006676E-2,-2.3670444E-1],"categories":[],"categories_nodes":[],"categories_segments":[],"categories_sizes":[],"default_left":[0,0,0,0,0,0,0,0,0,0,0,0,0,0,0,0,0,0,0,0,0,0,0,0,0,0,0,0,0,0,0,0,0,0,0,0,0],"id":12,"left_children":[1,3,5,7,9,11,13,15,17,19,21,-1,-1,-1,-1,23,25,27,29,-1,31,33,35,-1,-1,-1,-1,-1,-1,-1,-1,-1,-1,-1,-1,-1,-1],"loss_changes":[1.50688715E1,1.339937E1,7.143631E-1,7.702416E1,3.3243244E1,4.8812675E-1,1.0076233E0,2.447959E1,4.483545E1,3.6621883E1,6.752404E1,0E0,0E0,0E0,0E0,2.210814E1,5.02779E-1,2.6796097E1,6.869494E0,0E0,2.575304E1,5.009778E1,3.9712566E1,0E0,0E0,0E0,0E0,0E0,0E0,0E0,0E0,0E0,0E0,0E0,0E0,0E0,0E0],"parents":[2147483647,0,0,1,1,2,2,3,3,4,4,5,5,6,6,7,7,8,8,9,9,10,10,15,15,16,16,17,17,18,18,20,20,21,21,22,22],"right_children":[2,4,6,8,10,12,14,16,18,20,22,-1,-1,-1,-1,24,26,28,30,-1,32,34,36,-1,-1,-1,-1,-1,-1,-1,-1,-1,-1,-1,-1,-1,-1],"split_conditions":[5.95191E0,1.1842884E0,1.1469408E0,1.1749516E0,-9.447676E-2,1.7964771E0,6.425793E-1,2.646083E0,-3.8901737E-1,-9.380424E-1,4.6005897E-2,2.9042494E-1,5.4761577E-2,-9.352693E-2,1.9438028E-1,2.545908E0,7.834406E-1,9.2478573E-1,8.5933226E-1,-3.5413247E-1,-9.0081406E-1,-3.1297354E-3,9.2478573E-1,1.9336707E-3,4.3357652E-1,-3.9567745E-1,-8.93546E-2,1.3678621E0,-8.654136E-2,-2.67545E-1,3.2610646E-1,5.8058757E-1,-8.510224E-2,6.7827624E-1,-7.0117223E-3,5.7006676E-2,-2.3670444E-1],"split_indices":[0,3,3,3,0,7,2,2,0,8,0,0,0,0,0,2,0,6,0,0,4,1,6,0,0,0,0,0,0,0,0,0,0,0,0,0,0],"split_type":[0,0,0,0,0,0,0,0,0,0,0,0,0,0,0,0,0,0,0,0,0,0,0,0,0,0,0,0,0,0,0,0,0,0,0,0,0],"sum_hessian":[3.6054766E3,3.5856619E3,1.981474E1,3.1297732E3,4.558885E2,1.7247545E1,2.5671935E0,3.1173335E3,1.2439743E1,2.3513046E2,2.2075804E2,1.586532E1,1.3822243E0,1.2119473E0,1.3552461E0,3.1030632E3,1.4270244E1,7.3928843E0,5.046859E0,4.9900494E1,1.8522997E2,3.8343716E1,1.8241432E2,3.093347E3,9.716418E0,1.3064845E1,1.2053982E0,6.1733174E0,1.2195666E0,2.7462938E0,2.3005648E0,4.39566E0,1.808343E2,2.1787392E1,1.6556322E1,1.2049202E2,6.1922306E1],"tree_param":{"num_deleted":"0","num_feature":"18","num_nodes":"37","size_leaf_vector":"1"}},{"base_weights":[-4.2144586E-3,7.427662E-2,-5.3560626E-2,-1.250051E-2,3.1377405E-1,-3.8491455E-1,-4.6348516E-2,-2.7267388E-1,5.0196864E-2,7.487401E-1,-6.1455768E-2,9.90365E-2,-7.494454E-1,3.63148E-1,-7.811616E-2,-4.3618652E-1,1.0026083E0,1.2926623E0,-6.6735834E-2,-4.2844915E-1,8.209272E-2,4.842059E-2,-3.0768815E-1,1.2806451E-1,-3.7067655E-1,-1.7361468E-1,2.9245059E-3,3.6616793E-1,-2.6043436E-1,7.79901E-1,-2.6822156E-1,5.665928E-2,-2.857465E-2],"categories":[],"categories_nodes":[],"categories_segments":[],"categories_sizes":[],"default_left":[0,0,0,0,0,0,0,0,0,0,0,0,0,0,0,0,0,0,0,0,0,0,0,0,0,0,0,0,0,0,0,0,0],"id":13,"left_children":[1,3,5,7,-1,-1,9,11,13,15,17,19,21,23,25,-1,27,29,31,-1,-1,-1,-1,-1,-1,-1,-1,-1,-1,-1,-1,-1,-1],"loss_changes":[1.39060135E1,1.1686645E2,1.948702E1,2.0783367E1,0E0,0E0,2.6381935E1,4.3919838E1,4.126245E1,2.4361712E1,1.5476872E1,3.7697304E1,2.746043E1,3.0970242E1,3.2074333E1,0E0,1.6275105E1,2.6360672E1,1.5651828E1,0E0,0E0,0E0,0E0,0E0,0E0,0E0,0E0,0E0,0E0,0E0,0E0,0E0,0E0],"parents":[2147483647,0,0,1,1,2,2,3,3,6,6,7,7,8,8,9,9,10,10,11,11,12,12,13,13,14,14,16,16,17,17,18,18],"right_children":[2,4,6,8,-1,-1,10,12,14,16,18,20,22,24,26,-1,28,30,32,-1,-1,-1,-1,-1,-1,-1,-1,-1,-1,-1,-1,-1,-1],"split_conditions":[-6.1352664E-1,-6.484561E-1,-2.3626764E0,-7.07581E-1,3.1377405E-1,-3.8491455E-1,-2.0621507E0,-1.996492E-1,-3.1297354E-3,-3.895178E-2,-7.8822494E-1,-1.517215E0,-1.4753889E0,1.455058E0,-1.0960351E0,-4.3618652E-1,3.9065328E-1,-3.1297354E-3,-1.318536E0,-4.2844915E-1,8.209272E-2,4.842059E-2,-3.0768815E-1,1.2806451E-1,-3.7067655E-1,-1.7361468E-1,2.9245059E-3,3.6616793E-1,-2.6043436E-1,7.79901E-1,-2.6822156E-1,5.665928E-2,-2.857465E-2],"split_indices":[4,8,2,1,0,0,2,0,1,4,0,8,4,3,7,0,3,1,7,0,0,0,0,0,0,0,0,0,0,0,0,0,0],"split_type":[0,0,0,0,0,0,0,0,0,0,0,0,0,0,0,0,0,0,0,0,0,0,0,0,0,0,0,0,0,0,0,0,0],"sum_hessian":[3.5882578E3,1.3849003E3,2.2033574E3,1.2722615E3,1.1263885E2,1.1817762E1,2.1915398E3,2.464066E2,1.0258549E3,3.995887E1,2.1515808E3,1.3890382E2,1.0750277E2,2.977711E2,7.280838E2,3.64094E0,3.631793E1,7.4099813E0,2.144171E3,1.3514976E1,1.2538885E2,2.5108978E1,8.239379E1,2.870604E2,1.0710684E1,1.0787727E2,6.2020654E2,3.2839462E1,3.478466E0,4.5197167E0,2.8902643E0,2.1462004E2,1.9295508E3],"tree_param":{"num_deleted":"0","num_feature":"18","num_nodes":"33","size_leaf_vector":"1"}},{"base_weights":[-3.4631426E-3,-2.3956871E-1,1.4471891E-2,-8.680442E-1,-1.08201616E-1,8.6219007E-1,9.365825E-3,-1.2171818E0,-1.8408316E-1,-2.876724E-1,4.5317972E-1,-2.910862E-1,1.280103E0,-1.7406747E-2,1.4488505E-1,-1.2890645E0,-4.5138374E-2,7.868572E-1,-9.1768676E-1,9.896502E-2,-7.412745E-1,-1.6685848E-1,1.2145437E0,7.384064E-1,6.051605E-1,-3.079266E-3,-4.314597E-1,9.4407E-1,1.070326E-1,-5.359369E-1,-3.2822013E-1,-2.4201658E-1,3.950157E-1,-2.9631177E-1,-5.152872E-2,1.4288738E-1,-2.4775684E-1,-3.558815E-1,-1.1589747E-1,2.5280365E-1,-2.9263857E-1,-2.830416E-1,5.0885075E-1,3.6144176E-1,-2.625995E-1,-6.4172423E-3,1.2492763E-1,-1.9896138E-1,1.9043522E-1,-3.3162993E-1,4.065077E-1,5.2718345E-2,-8.524408E-2],"categories":[],"categories_nodes":[],"categories_segments":[],"categories_sizes":[],"default_left":[0,0,0,0,0,0,0,0,0,0,0,0,0,0,0,0,0,0,0,0,0,0,0,0,0,0,0,0,0,0,0,0,0,0,0,0,0,0,0,0,0,0,0,0,0,0,0,0,0,0,0,0,0],"id":14,"left_children":[1,3,5,7,9,11,13,15,17,19,21,-1,23,25,27,29,-1,31,33,35,37,39,41,-1,43,45,47,49,51,-1,-1,-1,-1,-1,-1,-1,-1,-1,-1,-1,-1,-1,-1,-1,-1,-1,-1,-1,-1,-1,-1,-1,-1],"loss_changes":[1.4983483E1,2.0530266E1,1.4227317E1,1.0055122E1,2.1062477E1,1.6313013E1,1.18670025E1,1.9776001E0,1.1923195E1,2.7790653E1,2.4145302E1,0E0,1.1630571E1,1.6202951E1,1.6221163E1,6.060486E-1,0E0,7.231558E0,3.223052E-1,3.0473927E1,1.1047054E1,2.4358444E1,2.5386314E1,0E0,1.15289E1,2.0297768E1,2.2993334E1,2.194107E1,1.39236355E1,0E0,0E0,0E0,0E0,0E0,0E0,0E0,0E0,0E0,0E0,0E0,0E0,0E0,0E0,0E0,0E0,0E0,0E0,0E0,0E0,0E0,0E0,0E0,0E0],"parents":[2147483647,0,0,1,1,2,2,3,3,4,4,5,5,6,6,7,7,8,8,9,9,10,10,12,12,13,13,14,14,15,15,17,17,18,18,19,19,20,20,21,21,22,22,24,24,25,25,26,26,27,27,28,28],"right_children":[2,4,6,8,10,12,14,16,18,20,22,-1,24,26,28,30,-1,32,34,36,38,40,42,-1,44,46,48,50,52,-1,-1,-1,-1,-1,-1,-1,-1,-1,-1,-1,-1,-1,-1,-1,-1,-1,-1,-1,-1,-1,-1,-1,-1],"split_conditions":[-7.08795E-1,-7.07581E-1,-7.052568E-1,1.7307693E0,1.9863515E0,-1.3657907E-1,1.0802919E0,-7.1186393E-1,-1.2993226E0,-7.539618E-1,1.4179806E0,-2.910862E-1,-1.0444578E0,8.5933226E-1,1.1268306E0,-1.3833545E0,-4.5138374E-2,1.4170337E-1,1.5297531E0,3.4205374E-1,7.0132154E-1,-1.1779431E0,-7.660929E-1,7.384064E-1,-1.4860603E0,6.984866E-1,1.053572E0,-5.0366294E-1,1.9928877E0,-5.359369E-1,-3.2822013E-1,-2.4201658E-1,3.950157E-1,-2.9631177E-1,-5.152872E-2,1.4288738E-1,-2.4775684E-1,-3.558815E-1,-1.1589747E-1,2.5280365E-1,-2.9263857E-1,-2.830416E-1,5.0885075E-1,3.6144176E-1,-2.625995E-1,-6.4172423E-3,1.2492763E-1,-1.9896138E-1,1.9043522E-1,-3.3162993E-1,4.065077E-1,5.2718345E-2,-8.524408E-2],"split_indices":[0,1,0,10,14,6,0,0,3,0,16,0,4,0,0,3,0,2,3,2,1,3,0,0,3,0,3,8,12,0,0,0,0,0,0,0,0,0,0,0,0,0,0,0,0,0,0,0,0,0,0,0,0],"split_type":[0,0,0,0,0,0,0,0,0,0,0,0,0,0,0,0,0,0,0,0,0,0,0,0,0,0,0,0,0,0,0,0,0,0,0,0,0,0,0,0,0,0,0,0,0,0,0,0,0,0,0,0,0],"sum_hessian":[3.5365603E3,2.4880547E2,3.2877546E3,4.2045784E1,2.0675969E2,1.8679592E1,3.2690752E3,2.7320196E1,1.4725588E1,1.5704178E2,4.9717907E1,3.2234712E0,1.5456121E1,2.7305178E3,5.385573E2,2.540013E1,1.9200675E0,6.3063736E0,8.419214E0,8.520084E1,7.1840935E1,2.7832539E1,2.1885366E1,4.657692E0,1.07984295E1,2.6401675E3,9.035033E1,2.3271961E1,5.1528534E2,4.8549294E0,2.05452E1,1.4432455E0,4.863128E0,7.400409E0,1.0188049E0,6.0856453E1,2.4344389E1,3.0837788E1,4.100315E1,1.2359555E1,1.5472983E1,3.8182094E0,1.8067158E1,7.818078E0,2.980352E0,2.5306526E3,1.0951494E2,7.452956E1,1.5820775E1,3.6047206E0,1.966724E1,4.3878152E2,7.6503845E1],"tree_param":{"num_deleted":"0","num_feature":"18","num_nodes":"53","size_leaf_vector":"1"}},{"base_weights":[-4.4888943E-3,-1.332117E-1,1.9315995E-2,-3.354558E-1,2.4254024E0,1.7225906E0,-3.6025867E-2,-9.4745654E-1,-2.4052E-1,3.8039443E-1,3.1252184E0,2.4840586E0,3.083132E-1,-3.3163065E-3,-1.7579105E-1,2.8716317E-1,-1.1975999E0,-1.2898325E0,-2.0625159E-1,3.6182916E0,4.419771E-1,3.9876625E-1,3.120799E0,-4.70099E-2,1.1148955E-1,7.320263E-2,-4.4807583E-1,-3.292663E-1,3.1236538E-1,-4.0533108E-1,6.9216765E-2,-4.1679046E-1,-7.1611024E-2,6.616783E-2,-8.1324175E-2,4.743243E-1,1.1518013E0,1.124492E0,4.0189224E-1,6.591579E-2,-2.8026512E-2,2.1693533E-2,4.9160674E-1,-3.6692817E-2,3.061288E-1,3.199681E-2,-2.2056526E-1],"categories":[],"categories_nodes":[],"categories_segments":[],"categories_sizes":[],"default_left":[0,0,0,0,0,0,0,0,0,0,0,0,0,0,0,0,0,0,0,0,0,0,0,0,0,0,0,0,0,0,0,0,0,0,0,0,0,0,0,0,0,0,0,0,0,0,0],"id":15,"left_children":[1,3,5,7,9,11,13,15,17,-1,19,21,-1,23,25,27,29,31,33,35,-1,-1,37,39,41,43,45,-1,-1,-1,-1,-1,-1,-1,-1,-1,-1,-1,-1,-1,-1,-1,-1,-1,-1,-1,-1],"loss_changes":[1.0773537E1,2.847567E2,2.7977075E2,2.9368797E1,2.869371E1,4.6867615E1,1.3142666E1,2.1365574E1,1.563954E1,0E0,1.45789795E1,2.81026E1,0E0,1.1696852E1,3.699643E1,1.3959049E1,1.2763977E1,1.1110725E0,1.19449215E1,2.0973206E0,0E0,0E0,2.5747772E1,2.0928347E1,3.8342316E1,5.3024456E1,4.15829E1,0E0,0E0,0E0,0E0,0E0,0E0,0E0,0E0,0E0,0E0,0E0,0E0,0E0,0E0,0E0,0E0,0E0,0E0,0E0,0E0],"parents":[2147483647,0,0,1,1,2,2,3,3,4,4,5,5,6,6,7,7,8,8,10,10,11,11,13,13,14,14,15,15,16,16,17,17,18,18,19,19,22,22,23,23,24,24,25,25,26,26],"right_children":[2,4,6,8,10,12,14,16,18,-1,20,22,-1,24,26,28,30,32,34,36,-1,-1,38,40,42,44,46,-1,-1,-1,-1,-1,-1,-1,-1,-1,-1,-1,-1,-1,-1,-1,-1,-1,-1,-1,-1],"split_conditions":[-1.2276287E0,-1.1881014E0,-1.1881014E0,-1.0960351E0,-1.3833545E0,-7.9324925E-1,1.9928877E0,-1.5234078E0,-1.66145E0,3.8039443E-1,1.0416962E0,-1.4113653E0,3.083132E-1,9.442685E-1,4.1528173E-2,1.4206896E0,1.4322747E0,1.7090881E0,-8.6004853E-1,-1.4610997E0,4.419771E-1,3.9876625E-1,8.0481446E-1,-1.2072856E0,1.7964771E0,-1.5882221E-1,-1.2339644E0,-3.292663E-1,3.1236538E-1,-4.0533108E-1,6.9216765E-2,-4.1679046E-1,-7.1611024E-2,6.616783E-2,-8.1324175E-2,4.743243E-1,1.1518013E0,1.124492E0,4.0189224E-1,6.591579E-2,-2.8026512E-2,2.1693533E-2,4.9160674E-1,-3.6692817E-2,3.061288E-1,3.199681E-2,-2.2056526E-1],"split_indices":[8,4,4,7,3,8,12,3,2,0,0,3,0,8,2,17,0,0,2,2,0,0,0,7,7,2,3,0,0,0,0,0,0,0,0,0,0,0,0,0,0,0,0,0,0,0,0],"split_type":[0,0,0,0,0,0,0,0,0,0,0,0,0,0,0,0,0,0,0,0,0,0,0,0,0,0,0,0,0,0,0,0,0,0,0,0,0,0,0,0,0,0,0,0,0,0,0],"sum_hessian":[3.5140615E3,5.4771985E2,2.9663418E3,5.0840237E2,3.9317467E1,9.2399704E1,2.8739421E3,6.7068344E1,4.41334E2,1.5874546E1,2.344292E1,4.285893E1,4.954077E1,2.3297332E3,5.44209E2,1.1274311E1,5.579403E1,1.2798544E1,4.285355E2,1.7137474E1,6.3054485E0,1.6329723E1,2.6529207E1,1.6879226E3,6.418105E2,2.846442E2,2.5956476E2,3.8143134E0,7.4599977E0,5.0428482E1,5.3655505E0,1.1398202E1,1.400342E0,5.6191105E1,3.7234436E2,2.475494E0,1.466198E1,1.88011E1,7.728107E0,2.496199E2,1.4383026E3,6.267789E2,1.5031624E1,2.3666609E2,4.7978115E1,8.874534E1,1.7081941E2],"tree_param":{"num_deleted":"0","num_feature":"18","num_nodes":"47","size_leaf_vector":"1"}},{"base_weights":[-5.3671547E-3,-1.5317771E-2,2.9058838E-1,-2.0975995E-1,-2.2093195E-4,4.600361E-1,-3.7818137E-1,-2.5193874E-2,-1.0126706E0,1.0710427E-1,-3.9352145E-2,7.135245E-1,1.7227222E-1,-2.6470887E-2,-1.3442587E0,1.5868306E-1,-5.9799826E-1,-5.606679E-1,-3.336006E-1,2.541409E-2,4.3406695E-1,9.411522E-3,-2.4781387E-1,3.241675E-1,9.915631E-1,5.560093E-1,-2.543073E-1,6.314944E-1,-3.800102E-1,-2.7660635E-1,-1.8824291E0,-5.6148146E-4,3.8593057E-1,-4.2667034E-1,-7.674562E-2,8.041135E-2,-2.9707772E-1,-3.6193825E-2,1.0231024E-1,1.7593798E-1,-1.3390997E-1,-1.4898653E-2,5.497459E-2,-1.3889858E-1,3.774713E-2,1.4873764E-1,-3.6057606E-1,8.78299E-2,3.1374314E-1,1.9364615E-1,-1.8906914E-1,-2.5752792E-1,2.0909037E-1,3.0533415E-1,-1.3616145E-1,-3.431862E-1,3.615672E-2,3.3146117E-2,-1.585167E-1,-7.425761E-1,-6.955594E-2],"categories":[],"categories_nodes":[],"categories_segments":[],"categories_sizes":[],"default_left":[0,0,0,0,0,0,0,0,0,0,0,0,0,0,0,0,0,0,0,0,0,0,0,0,0,0,0,0,0,0,0,0,0,0,0,0,0,0,0,0,0,0,0,0,0,0,0,0,0,0,0,0,0,0,0,0,0,0,0,0,0],"id":16,"left_children":[1,3,5,7,9,11,13,15,17,19,21,23,25,27,29,31,33,35,-1,37,39,41,43,45,47,49,51,53,55,57,59,-1,-1,-1,-1,-1,-1,-1,-1,-1,-1,-1,-1,-1,-1,-1,-1,-1,-1,-1,-1,-1,-1,-1,-1,-1,-1,-1,-1,-1,-1],"loss_changes":[1.020146E1,9.83631E0,1.2943174E1,3.5750843E1,1.3067373E1,6.467901E0,7.890655E0,2.0878164E1,1.4013405E0,2.2193748E1,2.3180466E1,4.844486E0,7.284068E0,4.4553757E0,3.0451002E0,2.7191946E1,1.3219156E1,3.8760314E0,0E0,3.075338E1,2.2550884E1,1.8995005E1,3.48143E1,6.191888E0,7.307415E-1,2.8782663E0,1.2867646E1,3.2749953E0,4.884006E0,3.7533945E-1,3.294941E0,0E0,0E0,0E0,0E0,0E0,0E0,0E0,0E0,0E0,0E0,0E0,0E0,0E0,0E0,0E0,0E0,0E0,0E0,0E0,0E0,0E0,0E0,0E0,0E0,0E0,0E0,0E0,0E0,0E0,0E0],"parents":[2147483647,0,0,1,1,2,2,3,3,4,4,5,5,6,6,7,7,8,8,9,9,10,10,11,11,12,12,13,13,14,14,15,15,16,16,17,17,19,19,20,20,21,21,22,22,23,23,24,24,25,25,26,26,27,27,28,28,29,29,30,30],"right_children":[2,4,6,8,10,12,14,16,18,20,22,24,26,28,30,32,34,36,-1,38,40,42,44,46,48,50,52,54,56,58,60,-1,-1,-1,-1,-1,-1,-1,-1,-1,-1,-1,-1,-1,-1,-1,-1,-1,-1,-1,-1,-1,-1,-1,-1,-1,-1,-1,-1,-1,-1],"split_conditions":[2.8367043E0,-1.3609245E0,1.7307693E0,5.307065E-1,-4.5934778E-1,-1.8259549E-1,4.7468525E-1,1.7307693E0,7.3611796E-1,1.0890616E0,1.999141E0,-9.380424E-1,-5.243613E-1,-1.0444578E0,-3.1297354E-3,2.3192628E-1,-1.3657907E-1,-1.0444578E0,-3.336006E-1,7.952228E-1,1.6847727E0,1.723966E0,5.727219E-1,1.2436304E0,-1.318536E0,1.2436304E0,1.9863515E0,-9.478091E-2,3.650959E-1,9.2478573E-1,7.0132154E-1,-5.6148146E-4,3.8593057E-1,-4.2667034E-1,-7.674562E-2,8.041135E-2,-2.9707772E-1,-3.6193825E-2,1.0231024E-1,1.7593798E-1,-1.3390997E-1,-1.4898653E-2,5.497459E-2,-1.3889858E-1,3.774713E-2,1.4873764E-1,-3.6057606E-1,8.78299E-2,3.1374314E-1,1.9364615E-1,-1.8906914E-1,-2.5752792E-1,2.0909037E-1,3.0533415E-1,-1.3616145E-1,-3.431862E-1,3.615672E-2,3.3146117E-2,-1.585167E-1,-7.425761E-1,-6.955594E-2],"split_indices":[0,2,10,3,2,4,3,10,3,8,15,8,3,4,1,3,6,4,0,7,4,9,7,2,7,2,14,7,8,6,1,0,0,0,0,0,0,0,0,0,0,0,0,0,0,0,0,0,0,0,0,0,0,0,0,0,0,0,0,0,0],"split_type":[0,0,0,0,0,0,0,0,0,0,0,0,0,0,0,0,0,0,0,0,0,0,0,0,0,0,0,0,0,0,0,0,0,0,0,0,0,0,0,0,0,0,0,0,0,0,0,0,0,0,0,0,0,0,0,0,0,0,0,0,0],"sum_hessian":[3.4615527E3,3.3498716E3,1.1168114E2,2.404221E2,3.1094497E3,8.935354E1,2.2327595E1,1.9632419E2,4.4097908E1,8.303396E2,2.27911E3,4.6719357E1,4.2634182E1,1.7121672E1,5.205922E0,1.4916383E2,4.7160366E1,9.142016E0,3.4955894E1,6.65216E2,1.6512357E2,1.8478201E3,4.3128992E2,2.0365715E1,2.6353643E1,2.2284426E1,2.0349756E1,5.7095428E0,1.1412129E1,2.2520854E0,2.9538367E0,1.3144827E2,1.7715555E1,1.29089985E1,3.425137E1,3.2495372E0,5.892479E0,4.5518625E2,2.1002977E2,1.4104431E2,2.407926E1,1.3796864E3,4.681337E2,2.7352512E2,1.577648E2,1.8913782E1,1.4519321E0,2.3592634E0,2.3994379E1,2.1145294E1,1.1391323E0,1.2505555E1,7.844202E0,4.2568007E0,1.4527421E0,4.008554E0,7.4035754E0,1.1087153E0,1.1433702E0,1.8056761E0,1.1481606E0],"tree_param":{"num_deleted":"0","num_feature":"18","num_nodes":"61","size_leaf_vector":"1"}},{"base_weights":[-5.342633E-3,1.084711E-2,-1.6248055E-1,-5.3039055E-2,8.440748E-2,6.959886E-2,-4.6644E-1,-2.0617228E-2,-6.8036413E-1,-3.337305E-2,2.4332756E-1,-1.436161E-1,8.1832063E-1,-7.9058444E-1,5.582612E-2,5.838407E-2,-1.9610664E-1,5.2398473E-1,-8.961015E-1,1.7977637E0,-6.1680913E-2,-8.11264E-2,4.4614425E-1,-2.342123E-1,1.2821592E0,2.2361608E0,2.044427E-1,-9.7634983E-1,3.7556988E-1,8.396584E-1,-4.381498E-1,3.6859512E-2,-7.012726E-2,6.7160386E-3,-1.24654345E-1,3.0627534E-1,-3.77919E-1,-3.0974776E-1,3.651559E-1,2.3938684E-1,1.041571E0,-1.4154729E-1,1.0215403E-2,4.74716E-2,-2.3575382E-1,1.5567657E-1,-2.3513578E-1,-1.6229463E-1,7.9391435E-2,-2.1739112E-2,5.9141934E-1,-2.4615265E-1,1.1354413E0,-1.8259852E-1,6.8739146E-1,-3.6453384E-1,-4.661347E-2,2.2422457E-1,-3.0696645E-1,4.331644E-2,4.2066875E-1,-2.068517E-1,5.947028E-1],"categories":[],"categories_nodes":[],"categories_segments":[],"categories_sizes":[],"default_left":[0,0,0,0,0,0,0,0,0,0,0,0,0,0,0,0,0,0,0,0,0,0,0,0,0,0,0,0,0,0,0,0,0,0,0,0,0,0,0,0,0,0,0,0,0,0,0,0,0,0,0,0,0,0,0,0,0,0,0,0,0,0,0],"id":17,"left_children":[1,3,5,7,9,11,13,15,17,19,21,23,25,27,29,31,33,35,37,39,41,43,45,47,49,51,53,55,57,59,61,-1,-1,-1,-1,-1,-1,-1,-1,-1,-1,-1,-1,-1,-1,-1,-1,-1,-1,-1,-1,-1,-1,-1,-1,-1,-1,-1,-1,-1,-1,-1,-1],"loss_changes":[8.759935E0,1.4676394E1,2.2720734E1,3.398261E1,2.7177322E1,2.9370762E1,2.3639402E1,2.2060404E1,2.180384E1,4.3370148E1,4.070202E1,1.8833624E1,3.502496E1,1.9011532E1,2.1396713E1,2.0702114E1,2.3687973E1,1.2902335E1,2.1434727E1,1.8550964E1,3.232282E1,4.0364838E1,3.4459015E1,2.0917833E1,8.290652E0,6.0935905E1,5.153521E1,1.4418182E1,7.2917147E0,8.143802E0,2.2035799E1,0E0,0E0,0E0,0E0,0E0,0E0,0E0,0E0,0E0,0E0,0E0,0E0,0E0,0E0,0E0,0E0,0E0,0E0,0E0,0E0,0E0,0E0,0E0,0E0,0E0,0E0,0E0,0E0,0E0,0E0,0E0,0E0],"parents":[2147483647,0,0,1,1,2,2,3,3,4,4,5,5,6,6,7,7,8,8,9,9,10,10,11,11,12,12,13,13,14,14,15,15,16,16,17,17,18,18,19,19,20,20,21,21,22,22,23,23,24,24,25,25,26,26,27,27,28,28,29,29,30,30],"right_children":[2,4,6,8,10,12,14,16,18,20,22,24,26,28,30,32,34,36,38,40,42,44,46,48,50,52,54,56,58,60,62,-1,-1,-1,-1,-1,-1,-1,-1,-1,-1,-1,-1,-1,-1,-1,-1,-1,-1,-1,-1,-1,-1,-1,-1,-1,-1,-1,-1,-1,-1,-1,-1],"split_conditions":[1.4627256E0,-9.447676E-2,-1.1581453E-1,-1.524245E-1,1.2772003E-1,9.4310486E-1,1.4206896E0,1.4206896E0,-1.5794291E0,-8.5631154E-2,-6.1773014E-1,-1.3180882E-1,1.1434553E0,2.5339317E0,-1.4113653E0,1.9928877E0,-3.1728184E-1,-3.5917258E-1,1.5017425E0,1.9928877E0,-7.5987333E-1,-1.2246276E0,1.4439808E0,1.4179806E0,1.723966E0,1.0469193E-1,-2.6081026E-1,1.7964771E0,4.4222894E-1,1.723966E0,1.6417956E0,3.6859512E-2,-7.012726E-2,6.7160386E-3,-1.24654345E-1,3.0627534E-1,-3.77919E-1,-3.0974776E-1,3.651559E-1,2.3938684E-1,1.041571E0,-1.4154729E-1,1.0215403E-2,4.74716E-2,-2.3575382E-1,1.5567657E-1,-2.3513578E-1,-1.6229463E-1,7.9391435E-2,-2.1739112E-2,5.9141934E-1,-2.4615265E-1,1.1354413E0,-1.8259852E-1,6.8739146E-1,-3.6453384E-1,-4.661347E-2,2.2422457E-1,-3.0696645E-1,4.331644E-2,4.2066875E-1,-2.068517E-1,5.947028E-1],"split_indices":[7,0,0,0,7,2,17,17,3,0,3,0,2,0,3,12,7,2,3,12,2,3,2,16,9,4,0,7,2,9,3,0,0,0,0,0,0,0,0,0,0,0,0,0,0,0,0,0,0,0,0,0,0,0,0,0,0,0,0,0,0,0,0],"split_type":[0,0,0,0,0,0,0,0,0,0,0,0,0,0,0,0,0,0,0,0,0,0,0,0,0,0,0,0,0,0,0,0,0,0,0,0,0,0,0,0,0,0,0,0,0,0,0,0,0,0,0,0,0,0,0,0,0,0,0,0,0,0,0],"sum_hessian":[3.441648E3,3.1210232E3,3.2062457E2,1.6704979E3,1.4505254E3,1.8224654E2,1.3837804E2,1.589387E3,8.111088E1,8.335477E2,6.169777E2,1.4248033E2,3.9766212E1,8.506727E1,5.3310764E1,1.0964553E3,4.9293164E2,1.2105177E1,6.90057E1,1.1738182E1,8.218095E2,2.3755367E2,3.7942404E2,1.3475359E2,7.726743E0,1.1216773E1,2.854944E1,7.351869E1,1.1548577E1,2.0338383E1,3.297238E1,8.986798E2,1.9777556E2,2.4743039E2,2.4550127E2,9.802031E0,2.3031468E0,6.530252E1,3.703181E0,8.2737055E0,3.4644768E0,1.5477635E2,6.670332E2,1.779027E2,5.9650963E1,3.5877277E2,2.0651276E1,8.338886E1,5.1364723E1,2.9074101E0,4.819333E0,3.9300082E0,7.2867646E0,2.1054361E1,7.4950786E0,5.6582676E1,1.6936018E1,9.491178E0,2.0574002E0,9.658404E0,1.0679978E1,3.0518343E1,2.4540365E0],"tree_param":{"num_deleted":"0","num_feature":"18","num_nodes":"63","size_leaf_vector":"1"}},{"base_weights":[-6.9476673E-3,2.5790535E-2,-8.7004736E-2,1.20388195E-2,3.0030167E-1,-1.15210965E-1,5.752555E-1,2.8251862E-2,-2.8466156E-1,-1.5406271E0,-9.0508744E-2,9.981916E-1,-3.6082268E-1,5.7070266E-2,-1.951238E-1,1.13462776E-1,-8.6263293E-1,3.432697E-1,-6.374622E-1,9.6269205E-2,-1.9309379E-1,1.4012119E0,-3.9048415E-1,1.3935821E-3,1.3812672E-1,2.8360435E-1,-7.76539E-2,2.0167778E-1,-1.2614116E-1,1.3735709E-1,-3.4173754E-1,-3.3847466E-1,4.3203544E-2,-8.678022E-2,3.7131295E-2,1.6866784E-1,7.2913504E-1],"categories":[],"categories_nodes":[],"categories_segments":[],"categories_sizes":[],"default_left":[0,0,0,0,0,0,0,0,0,0,0,0,0,0,0,0,0,0,0,0,0,0,0,0,0,0,0,0,0,0,0,0,0,0,0,0,0],"id":18,"left_children":[1,3,5,7,-1,9,11,13,15,17,19,21,-1,23,25,27,29,-1,-1,31,33,35,-1,-1,-1,-1,-1,-1,-1,-1,-1,-1,-1,-1,-1,-1,-1],"loss_changes":[8.9854E0,3.2622536E1,1.8653387E1,1.1556006E1,0E0,3.3494743E1,3.18926E1,1.4669854E1,2.8739874E1,2.7857738E1,1.8029774E1,3.2890945E1,0E0,4.266371E1,1.9171627E1,2.253673E1,1.910027E1,0E0,0E0,1.9684E1,1.8536285E1,2.3677227E1,0E0,0E0,0E0,0E0,0E0,0E0,0E0,0E0,0E0,0E0,0E0,0E0,0E0,0E0,0E0],"parents":[2147483647,0,0,1,1,2,2,3,3,5,5,6,6,7,7,8,8,9,9,10,10,11,11,13,13,14,14,15,15,16,16,19,19,20,20,21,21],"right_children":[2,4,6,8,-1,10,12,14,16,18,20,22,-1,24,26,28,30,-1,-1,32,34,36,-1,-1,-1,-1,-1,-1,-1,-1,-1,-1,-1,-1,-1,-1,-1],"split_conditions":[6.7926675E-1,6.546822E-1,1.9448568E0,1.6443312E0,3.0030167E-1,-1.6354505E0,1.4206896E0,1.1842884E0,1.6469564E-2,-7.539618E-1,-4.5934778E-1,1.1344913E-1,-3.6082268E-1,8.2014996E-1,-7.567418E-1,-3.1297354E-3,-1.588766E0,3.432697E-1,-6.374622E-1,-7.4165016E-1,1.9863515E0,2.015133E0,-3.9048415E-1,1.3935821E-3,1.3812672E-1,2.8360435E-1,-7.76539E-2,2.0167778E-1,-1.2614116E-1,1.3735709E-1,-3.4173754E-1,-3.3847466E-1,4.3203544E-2,-8.678022E-2,3.7131295E-2,1.6866784E-1,7.2913504E-1],"split_indices":[4,8,2,2,0,3,17,3,7,0,2,0,0,3,0,1,3,0,0,0,14,13,0,0,0,0,0,0,0,0,0,0,0,0,0,0,0],"split_type":[0,0,0,0,0,0,0,0,0,0,0,0,0,0,0,0,0,0,0,0,0,0,0,0,0,0,0,0,0,0,0,0,0,0,0,0,0],"sum_hessian":[3.426476E3,2.4324414E3,9.940346E2,2.3996162E3,3.282516E1,9.542196E2,3.9814995E1,2.2761423E3,1.23473885E2,1.5209391E1,9.390102E2,3.2518368E1,7.2966256E0,2.0167054E3,2.5943704E2,7.3587944E1,4.9885937E1,2.54689E0,1.26625E1,3.3291995E2,6.060902E2,2.8001995E1,4.516372E0,1.7856324E3,2.3107298E2,1.2996538E1,2.464405E2,3.58302E1,3.7757744E1,8.523393E0,4.1362545E1,1.1643809E1,3.2127615E2,4.6503244E2,1.410578E2,1.6278662E1,1.1723333E1],"tree_param":{"num_deleted":"0","num_feature":"18","num_nodes":"37","size_leaf_vector":"1"}},{"base_weights":[-6.2299385E-3,-1.9062033E-1,6.9222846E-3,-7.8153735E-1,-8.37104E-2,1.3183905E-1,-2.3102934E-2,-9.913855E-1,1.7505842E-1,9.1114193E-1,-1.5357292E-1,4.4248328E-2,1.3489548E0,6.293626E-2,-8.6330146E-2,-1.1687665E0,-3.0360484E-1,3.7541708E-1,-2.7197033E-1,-2.8585318E-1,1.5539638E0,-3.8800895E-1,2.0603621E-1,1.1466577E-1,-4.550539E-1,2.2284284E0,4.2573926E-1,1.0732113E-1,-4.3163732E-1,-4.003019E-1,-4.4159178E-2,-3.5944235E-1,-9.114618E-2,1.2506416E-1,-2.5411195E-1,5.8197945E-1,-1.8877465E-1,-2.2214E-1,1.2101999E-1,8.4345436E-1,2.9863253E-2,2.1311704E-2,4.6282566E-1,-2.393962E-1,2.9958794E-1,-7.651993E-2,9.0476656E-1,2.3493515E-1,-2.97502E-1,-3.8933313E-1,3.5787825E-2,-2.767191E-1,2.7329938E-2,-1.9203663E-1,5.9691425E-2,4.7519945E-2,-3.144362E-2],"categories":[],"categories_nodes":[],"categories_segments":[],"categories_sizes":[],"default_left":[0,0,0,0,0,0,0,0,0,0,0,0,0,0,0,0,0,0,0,0,0,0,0,0,0,0,0,0,0,0,0,0,0,0,0,0,0,0,0,0,0,0,0,0,0,0,0,0,0,0,0,0,0,0,0,0,0],"id":19,"left_children":[1,3,5,7,9,11,13,15,17,19,21,23,25,27,29,31,33,-1,-1,-1,35,37,39,41,43,45,47,49,51,53,55,-1,-1,-1,-1,-1,-1,-1,-1,-1,-1,-1,-1,-1,-1,-1,-1,-1,-1,-1,-1,-1,-1,-1,-1,-1,-1],"loss_changes":[8.261569E0,1.4263244E1,1.1931165E1,7.1248074E0,1.3566586E1,6.565722E1,1.3958226E1,3.1280518E0,9.376549E0,1.6841814E1,1.5369665E1,2.0307081E1,3.2625206E1,2.390793E1,1.9562786E1,2.0369339E-1,3.173794E0,0E0,0E0,0E0,9.573639E0,3.1019577E1,1.9760204E1,3.1395634E1,3.639361E1,4.172171E1,1.1621637E1,1.6947395E1,2.3100075E1,2.5275826E1,1.6047672E1,0E0,0E0,0E0,0E0,0E0,0E0,0E0,0E0,0E0,0E0,0E0,0E0,0E0,0E0,0E0,0E0,0E0,0E0,0E0,0E0,0E0,0E0,0E0,0E0,0E0,0E0],"parents":[2147483647,0,0,1,1,2,2,3,3,4,4,5,5,6,6,7,7,8,8,9,9,10,10,11,11,12,12,13,13,14,14,15,15,16,16,20,20,21,21,22,22,23,23,24,24,25,25,26,26,27,27,28,28,29,29,30,30],"right_children":[2,4,6,8,10,12,14,16,18,20,22,24,26,28,30,32,34,-1,-1,-1,36,38,40,42,44,46,48,50,52,54,56,-1,-1,-1,-1,-1,-1,-1,-1,-1,-1,-1,-1,-1,-1,-1,-1,-1,-1,-1,-1,-1,-1,-1,-1,-1,-1],"split_conditions":[-7.08795E-1,-7.07581E-1,-5.3444636E-1,1.1434553E0,-7.8822494E-1,-5.424616E-1,-3.1297354E-3,1.9928877E0,1.2436304E0,9.2478573E-1,1.8524185E-1,1.1095933E0,4.1528173E-2,1.4627256E0,-1.2072856E0,1.5297531E0,-1.2059538E0,3.7541708E-1,-2.7197033E-1,-2.8585318E-1,-1.1353842E-1,1.9863515E0,2.0391563E-1,1.053572E0,1.3974853E0,-8.6004853E-1,1.0469193E-1,-2.162326E0,1.6852266E0,1.7337013E0,-6.510332E-1,-3.5944235E-1,-9.114618E-2,1.2506416E-1,-2.5411195E-1,5.8197945E-1,-1.8877465E-1,-2.2214E-1,1.2101999E-1,8.4345436E-1,2.9863253E-2,2.1311704E-2,4.6282566E-1,-2.393962E-1,2.9958794E-1,-7.651993E-2,9.0476656E-1,2.3493515E-1,-2.97502E-1,-3.8933313E-1,3.5787825E-2,-2.767191E-1,2.7329938E-2,-1.9203663E-1,5.9691425E-2,4.7519945E-2,-3.144362E-2],"split_indices":[0,1,0,2,0,0,1,12,2,6,3,3,2,7,7,3,3,0,0,0,3,14,3,3,4,2,4,2,7,11,7,0,0,0,0,0,0,0,0,0,0,0,0,0,0,0,0,0,0,0,0,0,0,0,0,0,0],"split_type":[0,0,0,0,0,0,0,0,0,0,0,0,0,0,0,0,0,0,0,0,0,0,0,0,0,0,0,0,0,0,0,0,0,0,0,0,0,0,0,0,0,0,0,0,0,0,0,0,0,0,0,0,0,0,0,0,0],"sum_hessian":[3.4050872E3,2.258095E2,3.1792776E3,3.3628178E1,1.9218132E2,6.154348E2,2.5638428E3,2.7548502E1,6.079676E0,1.1820057E1,1.8036125E2,5.750848E2,4.0350086E1,1.0860107E3,1.477832E3,2.1344381E1,6.2041216E0,2.9686272E0,3.111049E0,2.9073505E0,8.912706E0,1.09135056E2,7.12262E1,5.0467932E2,7.040543E1,1.994055E1,2.0409534E1,9.9729297E2,8.8717766E1,1.7398497E2,1.303847E3,2.0270742E1,1.0736393E0,2.7676516E0,3.4364703E0,7.6684437E0,1.2442627E0,7.555199E1,3.358307E1,1.7994299E0,6.9426765E1,4.9073746E2,1.3941844E1,5.733157E1,1.3073864E1,4.963316E0,1.4977235E1,1.6657192E1,3.7523417E0,7.517909E0,9.897751E2,4.536414E1,4.3353622E1,1.2420988E2,4.977509E1,3.0007892E2,1.0037682E3],"tree_param":{"num_deleted":"0","num_feature":"18","num_nodes":"57","size_leaf_vector":"1"}},{"base_weights":[-7.098835E-3,6.464517E-2,-3.9226305E-2,4.8085008E-2,1.693976E0,-2.3566623E-1,7.254616E-3,2.10379E-2,4.6222144E-1,2.4818604E0,-2.8553507E-1,6.3227475E-1,-3.5187742E-1,-4.2116734E-1,6.287379E-2,3.410603E-2,-3.2022882E-1,8.297716E-1,2.6882637E-2,3.1518865E0,-2.0481397E-1,1.0024202E0,-3.533143E-1,-5.449111E-1,-1.653265E-1,1.7024289E0,-4.574415E-1,-4.8925734E-1,8.8284366E-2,4.8064433E-2,-1.9852335E-2,3.0923164E-1,2.6058339E-2,-2.4478516E-1,1.22899905E-1,3.8602355E-1,1.3339455E0,-2.9963207E-1,3.9562666E-1,-1.9330767E-1,2.611382E-1,1.22463085E-1,-1.13277785E-1,9.515295E-1,-2.0060386E-1,1.296984E-1,-1.587197E-1,1.0457554E-1,-2.4938466E-1,9.660407E-2,1.335444E-2],"categories":[],"categories_nodes":[],"categories_segments":[],"categories_sizes":[],"default_left":[0,0,0,0,0,0,0,0,0,0,0,0,0,0,0,0,0,0,0,0,0,0,0,0,0,0,0,0,0,0,0,0,0,0,0,0,0,0,0,0,0,0,0,0,0,0,0,0,0,0,0],"id":20,"left_children":[1,3,5,7,9,11,13,15,17,19,-1,21,23,25,27,29,-1,31,33,35,-1,37,-1,39,41,43,45,47,49,-1,-1,-1,-1,-1,-1,-1,-1,-1,-1,-1,-1,-1,-1,-1,-1,-1,-1,-1,-1,-1,-1],"loss_changes":[7.8208065E0,2.8236315E1,2.1398952E1,1.1639247E1,2.4313395E1,4.545287E1,4.5205498E1,1.3937281E1,1.0171676E1,1.994429E1,0E0,3.6895416E1,1.4174374E1,1.757108E1,2.3599754E1,1.2234997E1,0E0,5.063753E0,1.0076964E1,1.1429749E1,0E0,2.9676643E1,0E0,2.7901398E1,2.4852913E1,1.5613857E1,1.3938087E1,2.150287E1,1.6415318E1,0E0,0E0,0E0,0E0,0E0,0E0,0E0,0E0,0E0,0E0,0E0,0E0,0E0,0E0,0E0,0E0,0E0,0E0,0E0,0E0,0E0,0E0],"parents":[2147483647,0,0,1,1,2,2,3,3,4,4,5,5,6,6,7,7,8,8,9,9,11,11,12,12,13,13,14,14,15,15,17,17,18,18,19,19,21,21,23,23,24,24,25,25,26,26,27,27,28,28],"right_children":[2,4,6,8,10,12,14,16,18,20,-1,22,24,26,28,30,-1,32,34,36,-1,38,-1,40,42,44,46,48,50,-1,-1,-1,-1,-1,-1,-1,-1,-1,-1,-1,-1,-1,-1,-1,-1,-1,-1,-1,-1,-1,-1],"split_conditions":[-1.2339644E0,-1.2433013E0,-7.07581E-1,1.7921646E0,7.5214446E-2,-1.318536E0,-8.044678E-1,-1.261975E0,-1.8259549E-1,3.5022098E-1,-2.8553507E-1,1.9863515E0,2.389705E-1,-7.821233E-1,-1.4297866E0,-3.1297354E-3,-3.2022882E-1,5.424041E-1,-1.5327448E0,-5.3978276E-1,-2.0481397E-1,-9.380424E-1,-3.533143E-1,1.8446816E0,-1.0828356E0,-3.1297354E-3,-1.4297866E0,-9.380424E-1,-4.0298182E-1,4.8064433E-2,-1.9852335E-2,3.0923164E-1,2.6058339E-2,-2.4478516E-1,1.22899905E-1,3.8602355E-1,1.3339455E0,-2.9963207E-1,3.9562666E-1,-1.9330767E-1,2.611382E-1,1.22463085E-1,-1.13277785E-1,9.515295E-1,-2.0060386E-1,1.296984E-1,-1.587197E-1,1.0457554E-1,-2.4938466E-1,9.660407E-2,1.335444E-2],"split_indices":[3,3,1,0,0,7,3,3,4,7,0,14,7,0,7,1,0,2,3,7,0,8,0,2,8,1,7,8,3,0,0,0,0,0,0,0,0,0,0,0,0,0,0,0,0,0,0,0,0,0,0],"split_type":[0,0,0,0,0,0,0,0,0,0,0,0,0,0,0,0,0,0,0,0,0,0,0,0,0,0,0,0,0,0,0,0,0,0,0,0,0,0,0,0,0,0,0,0,0,0,0,0,0,0,0],"sum_hessian":[3.3909434E3,1.0485065E3,2.342437E3,1.0389761E3,9.530414E0,4.4742737E2,1.8950095E3,9.7626715E2,6.2708866E1,7.391297E0,2.1391168E0,5.2308987E1,3.9511838E2,2.1699252E2,1.678017E3,9.6564233E2,1.0624831E1,3.3510452E1,2.9198416E1,6.103112E0,1.2881849E0,4.3798336E1,8.510652E0,1.9324107E2,2.0187732E2,2.8728864E0,2.1411964E2,7.302597E1,1.6049911E3,4.274724E2,5.381699E2,2.6069622E1,7.440829E0,8.765799E0,2.0432617E1,3.3174958E0,2.7856164E0,5.6838646E0,3.811447E1,1.810638E2,1.2177279E1,5.4283035E1,1.4759428E2,1.5652534E0,1.307633E0,1.55768E1,1.9854285E2,2.1163511E1,5.1862457E1,2.5215076E2,1.3528403E3],"tree_param":{"num_deleted":"0","num_feature":"18","num_nodes":"51","size_leaf_vector":"1"}},{"base_weights":[-7.4607194E-3,-1.0379265E-2,7.350171E-1,-1.12807E-1,8.084579E-3,2.7418345E-1,2.3891701E-1,-2.5652274E-1,1.5912349E0,1.3523543E0,-2.9610936E-2,-1.15227185E-1,5.3164816E-1,-8.4502447E-1,-1.7978615E-1,3.43023E-1,5.2590305E-1,1.5916138E0,3.039276E-1,4.669333E-2,-6.531984E-2,1.964006E-1,3.5779506E-2,7.503102E-2,-3.3818364E-1,1.1197091E-2,-9.402744E-2,4.9331874E-1,2.767469E-1,-2.0626923E-2,4.369984E-2,-1.3589724E-2,-1.2823807E-1],"categories":[],"categories_nodes":[],"categories_segments":[],"categories_sizes":[],"default_left":[0,0,0,0,0,0,0,0,0,0,0,0,0,0,0,0,0,0,0,0,0,0,0,0,0,0,0,0,0,0,0,0,0],"id":21,"left_children":[1,3,5,7,9,-1,11,13,15,17,19,-1,21,23,25,-1,-1,27,-1,29,31,-1,-1,-1,-1,-1,-1,-1,-1,-1,-1,-1,-1],"loss_changes":[7.297806E0,6.340364E0,9.5214844E-1,1.2580297E2,1.4400351E2,0E0,1.088571E0,2.1211538E1,8.908386E-1,4.6796265E0,7.5356455E0,0E0,1.1056709E-1,1.7065956E1,1.2190918E1,0E0,0E0,2.6672363E-2,0E0,1.0086819E1,1.3637554E1,0E0,0E0,0E0,0E0,0E0,0E0,0E0,0E0,0E0,0E0,0E0,0E0],"parents":[2147483647,0,0,1,1,2,2,3,3,4,4,6,6,7,7,8,8,9,9,10,10,12,12,13,13,14,14,17,17,19,19,20,20],"right_children":[2,4,6,8,10,-1,12,14,16,18,20,-1,22,24,26,-1,-1,28,-1,30,32,-1,-1,-1,-1,-1,-1,-1,-1,-1,-1,-1,-1],"split_conditions":[5.95191E0,-1.2276287E0,5.493803E-1,-1.1881014E0,-1.1881014E0,2.7418345E-1,2.2030278E-1,-1.0960351E0,-1.3833545E0,-7.9324925E-1,-1.2246276E0,-1.15227185E-1,1.5577637E0,-1.5234078E0,-3.8475704E-1,3.43023E-1,5.2590305E-1,1.490042E0,3.039276E-1,-2.3647581E-1,1.5739762E0,1.964006E-1,3.5779506E-2,7.503102E-2,-3.3818364E-1,1.1197091E-2,-9.402744E-2,4.9331874E-1,2.767469E-1,-2.0626923E-2,4.369984E-2,-1.3589724E-2,-1.2823807E-1],"split_indices":[0,8,3,4,4,0,8,7,3,8,3,0,3,3,0,0,0,0,0,0,7,0,0,0,0,0,0,0,0,0,0,0,0],"split_type":[0,0,0,0,0,0,0,0,0,0,0,0,0,0,0,0,0,0,0,0,0,0,0,0,0,0,0,0,0,0,0,0,0],"sum_hessian":[3.3632483E3,3.351062E3,1.2186397E1,5.1102936E2,2.8400325E3,8.337179E0,3.8492174E0,4.7206567E2,3.8963684E1,7.651556E1,2.763517E3,1.1307007E0,2.7185168E0,5.329882E1,4.1876685E2,1.2481209E1,2.6482473E1,4.270624E1,3.3809315E1,8.8088916E2,1.8826279E3,1.6413507E0,1.0771661E0,1.0945382E1,4.2353436E1,1.5982892E2,2.5893796E2,3.8232815E1,4.473427E0,4.0674023E2,4.741489E2,1.7850664E3,9.7561485E1],"tree_param":{"num_deleted":"0","num_feature":"18","num_nodes":"33","size_leaf_vector":"1"}},{"base_weights":[-4.074259E-3,-8.283526E-3,3.657937E-1,1.5075561E-2,-6.5201655E-2,5.2143353E-1,-1.2532276E-1,5.4841777E-3,2.9448506E-1,-9.360552E-3,-3.3717075E-1,7.184609E-1,2.184028E-1,-8.0081075E-1,5.6918037E-1,-2.3207704E-2,1.4768103E-1,-9.072381E-2,2.3918726E-1,-3.880159E-1,7.338867E-1,1.4318383E-1,8.7884957E-1,2.3986046E-1,-8.881246E-2,-3.8949165E-1,-1.1327669E-1,2.1686609E-1,6.569888E-2,-1.4535757E-3,-9.4882816E-2,7.2708055E-2,-1.7572604E-1,3.986593E-2,-8.294873E-2,-3.1645215E-1,9.6227325E-2,2.5262538E-1,-1.4662352E-1,1.554153E-1,-8.7757654E-2,1.2279136E-1,2.9009774E-1,-1.9665673E-1,1.5094548E-1,1.8293363E-1,-2.6159197E-1],"categories":[],"categories_nodes":[],"categories_segments":[],"categories_sizes":[],"default_left":[0,0,0,0,0,0,0,0,0,0,0,0,0,0,0,0,0,0,0,0,0,0,0,0,0,0,0,0,0,0,0,0,0,0,0,0,0,0,0,0,0,0,0,0,0,0,0],"id":22,"left_children":[1,3,5,7,9,11,13,15,-1,17,19,21,23,25,27,29,31,33,35,37,-1,39,41,-1,43,-1,45,-1,-1,-1,-1,-1,-1,-1,-1,-1,-1,-1,-1,-1,-1,-1,-1,-1,-1,-1,-1],"loss_changes":[5.1468887E0,4.345663E0,2.9087915E0,2.1481009E1,1.4440401E1,1.5411963E0,5.0336657E0,9.370689E0,0E0,1.5998941E1,2.3873169E1,1.4241285E0,2.3281898E0,1.6870759E0,1.3212931E-1,1.0284222E1,2.691995E1,2.4792545E1,2.0934402E1,2.0228655E1,0E0,9.4485533E-1,1.3981628E-1,0E0,3.4063387E0,0E0,2.36768E0,0E0,0E0,0E0,0E0,0E0,0E0,0E0,0E0,0E0,0E0,0E0,0E0,0E0,0E0,0E0,0E0,0E0,0E0,0E0,0E0],"parents":[2147483647,0,0,1,1,2,2,3,3,4,4,5,5,6,6,7,7,9,9,10,10,11,11,12,12,13,13,14,14,15,15,16,16,17,17,18,18,19,19,21,21,22,22,24,24,26,26],"right_children":[2,4,6,8,10,12,14,16,-1,18,20,22,24,26,28,30,32,34,36,38,-1,40,42,-1,44,-1,46,-1,-1,-1,-1,-1,-1,-1,-1,-1,-1,-1,-1,-1,-1,-1,-1,-1,-1,-1,-1],"split_conditions":[3.8596532E0,6.7926675E-1,1.7307693E0,6.546822E-1,1.9928877E0,2.4833564E-1,7.550962E-2,2.2030278E-1,2.9448506E-1,7.427545E-1,1.7164907E0,-1.2276287E0,-1.3833545E0,1.4206896E0,-1.788966E-1,1.0469193E-1,1.0432801E0,-4.5934778E-1,-6.7521787E-1,-1.4297866E0,7.338867E-1,1.4170337E-1,-1.0960351E0,2.3986046E-1,6.147385E-1,-3.8949165E-1,-2.589974E-1,2.1686609E-1,6.569888E-2,-1.4535757E-3,-9.4882816E-2,7.2708055E-2,-1.7572604E-1,3.986593E-2,-8.294873E-2,-3.1645215E-1,9.6227325E-2,2.5262538E-1,-1.4662352E-1,1.554153E-1,-8.7757654E-2,1.2279136E-1,2.9009774E-1,-1.9665673E-1,1.5094548E-1,1.8293363E-1,-2.6159197E-1],"split_indices":[0,4,10,8,12,4,8,8,0,2,3,8,3,17,3,4,2,2,0,7,0,2,7,0,3,0,2,0,0,0,0,0,0,0,0,0,0,0,0,0,0,0,0,0,0,0,0],"split_type":[0,0,0,0,0,0,0,0,0,0,0,0,0,0,0,0,0,0,0,0,0,0,0,0,0,0,0,0,0,0,0,0,0,0,0,0,0,0,0,0,0,0,0,0,0,0,0],"sum_hessian":[3.3029683E3,3.2667686E3,3.6199715E1,2.3167246E3,9.50044E2,2.7441496E1,8.758221E0,2.2949565E3,2.1768116E1,7.8906616E2,1.6097783E2,1.5798534E1,1.1642961E1,4.362294E0,4.395927E0,1.9103341E3,3.8462238E2,5.949436E2,1.9412253E2,1.5893518E2,2.04265E0,3.8570201E0,1.1941514E1,3.4722633E0,8.170697E0,2.0155244E0,2.3467698E0,2.3153455E0,2.0805812E0,1.7986544E3,1.1167973E2,3.412411E2,4.3381294E1,2.7010632E2,3.2483728E2,1.080359E1,1.8331894E2,1.1472586E1,1.4746259E2,1.9716809E0,1.8853393E0,2.7793448E0,9.162169E0,4.1195374E0,4.0511603E0,1.3021097E0,1.04466E0],"tree_param":{"num_deleted":"0","num_feature":"18","num_nodes":"47","size_leaf_vector":"1"}},{"base_weights":[-3.0127466E-3,-5.0866967E-3,6.514385E-1,-1.3857523E-1,4.7594556E-3,2.6216277E-1,1.4688735E-1,-1.1512069E-2,-3.2184896E-1,1.3430766E-2,-2.6392E-1,4.54925E-1,-1.3138673E-1,-3.022846E-1,1.7723107E-1,4.5024124E-3,2.2257203E-1,-6.8532926E-1,1.7180602E-1,1.3946396E-2,1.8322834E-1,5.0754946E-2,-2.7248642E-1,1.1562005E-3,2.6331964E-1,1.8641166E-2,-8.687012E-3,1.383646E-1,-3.057742E-1,-2.6000944E-1,2.0336188E-1,-9.697307E-2,2.5528404E-1],"categories":[],"categories_nodes":[],"categories_segments":[],"categories_sizes":[],"default_left":[0,0,0,0,0,0,0,0,0,0,0,0,0,0,0,0,0,0,0,0,0,0,0,0,0,0,0,0,0,0,0,0,0],"id":23,"left_children":[1,3,5,7,9,-1,11,13,-1,15,17,19,-1,21,23,25,27,29,31,-1,-1,-1,-1,-1,-1,-1,-1,-1,-1,-1,-1,-1,-1],"loss_changes":[4.460475E0,4.304448E0,1.0367489E0,2.6693388E1,7.1106033E0,0E0,9.880296E-1,1.0977413E1,0E0,5.5188403E0,1.763895E1,1.8536693E-1,0E0,2.26437E1,1.4732092E1,5.470898E0,3.633133E1,1.2630224E1,1.6316713E1,0E0,0E0,0E0,0E0,0E0,0E0,0E0,0E0,0E0,0E0,0E0,0E0,0E0,0E0],"parents":[2147483647,0,0,1,1,2,2,3,3,4,4,6,6,7,7,9,9,10,10,11,11,13,13,14,14,15,15,16,16,17,17,18,18],"right_children":[2,4,6,8,10,-1,12,14,-1,16,18,20,-1,22,24,26,28,30,32,-1,-1,-1,-1,-1,-1,-1,-1,-1,-1,-1,-1,-1,-1],"split_conditions":[5.95191E0,-1.3609245E0,5.493803E-1,7.3611796E-1,1.6847727E0,2.6216277E-1,1.7307693E0,-2.0603137E-1,-3.2184896E-1,1.5234411E0,7.0132154E-1,1.9863515E0,-1.3138673E-1,-3.1045395E-1,1.0093826E0,-5.3978276E-1,1.999141E0,1.3514752E0,1.4206896E0,1.3946396E-2,1.8322834E-1,5.0754946E-2,-2.7248642E-1,1.1562005E-3,2.6331964E-1,1.8641166E-2,-8.687012E-3,1.383646E-1,-3.057742E-1,-2.6000944E-1,2.0336188E-1,-9.697307E-2,2.5528404E-1],"split_indices":[0,2,3,3,4,0,10,7,0,8,1,14,0,0,0,7,15,7,17,0,0,0,0,0,0,0,0,0,0,0,0,0,0],"split_type":[0,0,0,0,0,0,0,0,0,0,0,0,0,0,0,0,0,0,0,0,0,0,0,0,0,0,0,0,0,0,0,0,0],"sum_hessian":[3.2828464E3,3.273465E3,9.381353E0,2.2396745E2,3.0494976E3,6.002911E0,3.378442E0,1.9804474E2,2.5922724E1,2.955076E3,9.442155E1,2.3584073E0,1.0200347E0,7.771601E1,1.2032873E2,2.8350671E3,1.2000902E2,4.7708134E1,4.6713417E1,1.0098816E0,1.3485258E0,4.4115322E1,3.360069E1,9.7261566E1,2.3067162E1,1.0410153E3,1.7940518E3,1.0119142E2,1.881759E1,4.2427532E1,5.2806E0,2.7321707E1,1.939171E1],"tree_param":{"num_deleted":"0","num_feature":"18","num_nodes":"33","size_leaf_vector":"1"}},{"base_weights":[-2.9777973E-3,-3.0722544E-2,4.179982E-2,-1.2921845E-2,-3.94921E-1,1.3024734E-1,-2.6981908E-1,2.308696E-2,-1.9140385E-1,-7.8492826E-1,5.167624E-1,6.070126E-1,6.654045E-2,-4.675263E-1,3.4987476E-1,-9.552509E-3,6.594365E-1,-1.0122021E0,-5.904411E-2,-3.8954586E-1,-1.1135504E0,-3.5168603E-1,1.5207174E0,2.7167818E-1,1.6937394E0,1.285807E-1,-6.905898E-1,4.2186448E-1,-6.117353E-1,1.561232E0,2.5436524E-2,1.1765492E-2,-6.957746E-2,2.694642E-1,-2.9432565E-1,-5.350135E-2,-3.4185246E-1,-5.36717E-2,2.5688648E-1,-1.8996671E-1,4.6117947E-1,-1.9374102E-1,-3.9739078E-1,8.593791E-2,6.121829E-1,1.9204512E-1,-2.9982573E-1,6.3650966E-1,-6.8428285E-2,5.1438972E-2,-2.2072117E-1,-1.0895657E-1,-3.362211E-1,-1.19901024E-1,2.5842312E-1,-5.7041932E-2,-2.50465E-1,5.878171E-1,-1.9683272E-1,-3.8728178E-2,7.109073E-1],"categories":[],"categories_nodes":[],"categories_segments":[],"categories_sizes":[],"default_left":[0,0,0,0,0,0,0,0,0,0,0,0,0,0,0,0,0,0,0,0,0,0,0,0,0,0,0,0,0,0,0,0,0,0,0,0,0,0,0,0,0,0,0,0,0,0,0,0,0,0,0,0,0,0,0,0,0,0,0,0,0],"id":24,"left_children":[1,3,5,7,9,11,13,15,17,19,21,23,25,27,29,31,33,35,37,39,41,-1,43,45,47,49,51,53,55,57,59,-1,-1,-1,-1,-1,-1,-1,-1,-1,-1,-1,-1,-1,-1,-1,-1,-1,-1,-1,-1,-1,-1,-1,-1,-1,-1,-1,-1,-1,-1],"loss_changes":[4.066709E0,1.3097339E1,3.4551853E1,1.2394918E1,3.387999E1,2.9608112E1,3.412481E1,3.3345238E1,3.5114296E1,8.185146E0,5.06371E1,4.142483E1,4.058864E1,2.7266193E1,2.653476E1,1.657865E1,3.1563782E1,4.562916E0,3.0858353E1,1.5832239E1,2.6681366E0,0E0,1.1289795E1,4.2335827E1,2.261827E1,2.969392E1,8.811213E0,1.116712E1,1.69263E1,1.3881886E1,1.9994656E1,0E0,0E0,0E0,0E0,0E0,0E0,0E0,0E0,0E0,0E0,0E0,0E0,0E0,0E0,0E0,0E0,0E0,0E0,0E0,0E0,0E0,0E0,0E0,0E0,0E0,0E0,0E0,0E0,0E0,0E0],"parents":[2147483647,0,0,1,1,2,2,3,3,4,4,5,5,6,6,7,7,8,8,9,9,10,10,11,11,12,12,13,13,14,14,15,15,16,16,17,17,18,18,19,19,20,20,22,22,23,23,24,24,25,25,26,26,27,27,28,28,29,29,30,30],"right_children":[2,4,6,8,10,12,14,16,18,20,22,24,26,28,30,32,34,36,38,40,42,-1,44,46,48,50,52,54,56,58,60,-1,-1,-1,-1,-1,-1,-1,-1,-1,-1,-1,-1,-1,-1,-1,-1,-1,-1,-1,-1,-1,-1,-1,-1,-1,-1,-1,-1,-1,-1],"split_conditions":[6.420257E-2,-7.3204665E-3,1.7337013E0,9.508663E-1,1.053572E0,1.6294841E-1,8.4816056E-1,8.2014996E-1,1.053572E0,-3.1297354E-3,1.7337013E0,1.0432801E0,1.2436304E0,-1.3317451E0,-1.2072856E0,1.9928877E0,1.999141E0,-1.3317451E0,-9.447676E-2,1.541129E0,-7.571703E-1,-3.5168603E-1,5.424041E-1,1.7307693E0,4.6147144E-1,1.4830687E0,1.6443312E0,3.5022098E-1,-1.3926915E0,8.285712E-1,1.6847727E0,1.1765492E-2,-6.957746E-2,2.694642E-1,-2.9432565E-1,-5.350135E-2,-3.4185246E-1,-5.36717E-2,2.5688648E-1,-1.8996671E-1,4.6117947E-1,-1.9374102E-1,-3.9739078E-1,8.593791E-2,6.121829E-1,1.9204512E-1,-2.9982573E-1,6.3650966E-1,-6.8428285E-2,5.1438972E-2,-2.2072117E-1,-1.0895657E-1,-3.362211E-1,-1.19901024E-1,2.5842312E-1,-5.7041932E-2,-2.50465E-1,5.878171E-1,-1.9683272E-1,-3.8728178E-2,7.109073E-1],"split_indices":[0,0,11,3,3,0,3,3,3,1,11,2,2,4,7,12,15,4,0,4,4,0,2,10,7,3,2,7,3,0,4,0,0,0,0,0,0,0,0,0,0,0,0,0,0,0,0,0,0,0,0,0,0,0,0,0,0,0,0,0,0],"split_type":[0,0,0,0,0,0,0,0,0,0,0,0,0,0,0,0,0,0,0,0,0,0,0,0,0,0,0,0,0,0,0,0,0,0,0,0,0,0,0,0,0,0,0,0,0,0,0,0,0,0,0,0,0,0,0,0,0,0,0,0,0],"sum_hessian":[3.2713833E3,2.0200499E3,1.2513333E3,1.9269053E3,9.314466E1,9.751392E2,2.76194E2,1.6041401E3,3.2276517E2,6.533441E1,2.7810247E1,1.13937004E2,8.612022E2,2.0957631E2,6.66177E1,1.5268123E3,7.732785E1,4.3897514E1,2.7886765E2,3.0646912E1,3.46875E1,1.0305185E1,1.7505062E1,8.8024895E1,2.5912104E1,7.96746E2,6.4456245E1,2.8971687E1,1.8060461E2,1.326774E1,5.334996E1,1.2528584E3,2.739539E2,6.789783E1,9.430024E0,6.13217E0,3.7765347E1,2.472899E2,3.1577734E1,2.780223E1,2.844681E0,1.2048503E1,2.2638998E1,5.6478057E0,1.1857257E1,6.862726E1,1.939764E1,2.1107767E1,4.804337E0,7.5984827E2,3.689772E1,3.7646446E1,2.6809797E1,1.0129618E1,1.884207E1,6.314891E1,1.174557E2,1.1346612E1,1.9211282E0,5.0937176E1,2.412786E0],"tree_param":{"num_deleted":"0","num_feature":"18","num_nodes":"61","size_leaf_vector":"1"}},{"base_weights":[-5.6380574E-3,-7.213499E-3,9.75318E-1,-3.6987772E-3,-3.6364993E-1,-1.9174834E-1,6.999648E-1,-8.963161E-2,1.1642773E-2,-2.011167E-1,4.097936E-1,1.2320703E0,-1.6318077E-2,-2.2014694E-1,-4.189363E-2,4.0962705E-1,2.9817384E-1,1.0394636E-1,-7.1466495E-3],"categories":[],"categories_nodes":[],"categories_segments":[],"categories_sizes":[],"default_left":[0,0,0,0,0,0,0,0,0,0,0,0,0,0,0,0,0,0,0],"id":25,"left_children":[1,3,5,7,-1,-1,-1,9,11,13,-1,15,17,-1,-1,-1,-1,-1,-1],"loss_changes":[5.032405E0,1.3749008E1,1.2938061E1,4.27126E0,0E0,0E0,0E0,7.991904E1,9.383749E1,1.4854111E1,0E0,5.98938E-1,7.328316E0,0E0,0E0,0E0,0E0,0E0,0E0],"parents":[2147483647,0,0,1,1,2,2,3,3,7,7,8,8,9,9,11,11,12,12],"right_children":[2,4,6,8,-1,-1,-1,10,12,14,-1,16,18,-1,-1,-1,-1,-1,-1],"split_conditions":[3.046784E0,2.646083E0,1.4737318E0,-1.2276287E0,-3.6364993E-1,-1.9174834E-1,6.999648E-1,-1.1881014E0,-1.1881014E0,-1.0960351E0,4.097936E-1,-7.9324925E-1,-2.0621507E0,-2.2014694E-1,-4.189363E-2,4.0962705E-1,2.9817384E-1,1.0394636E-1,-7.1466495E-3],"split_indices":[2,2,3,8,0,0,0,4,4,7,0,8,2,0,0,0,0,0,0],"split_type":[0,0,0,0,0,0,0,0,0,0,0,0,0,0,0,0,0,0,0],"sum_hessian":[3.2507427E3,3.2465212E3,4.221352E0,3.238079E3,8.442068E0,2.1702838E0,2.0510683E0,4.897869E2,2.7482922E3,4.5574338E2,3.404352E1,6.0590504E1,2.687702E3,4.601783E1,4.0972552E2,3.5807373E1,2.4783129E1,5.354908E1,2.6341528E3],"tree_param":{"num_deleted":"0","num_feature":"18","num_nodes":"19","size_leaf_vector":"1"}},{"base_weights":[-2.8198934E-3,-7.5331813E-1,-6.407961E-4,-2.3670545E-2,-3.4477228E-1,3.0323195E-1,-5.6614466E-3,-2.9420295E-1,1.9457923E-1,-3.6438343E-1,4.8909107E-1,-2.3503292E-1,6.1252923E-3,-3.7266886E-1,6.5380985E-1,-7.934684E-2,-7.204134E-1,3.3063985E-2,-4.9915273E-2,2.9609072E-1,-1.2659216E-1,-1.5270922E-1,4.0343072E-2,1.2549254E-1,-2.6919773E-1,7.1428525E-3,2.910866E-1,-4.655187E-2,3.0588238E-2],"categories":[],"categories_nodes":[],"categories_segments":[],"categories_sizes":[],"default_left":[0,0,0,0,0,0,0,0,0,0,0,0,0,0,0,0,0,0,0,0,0,0,0,0,0,0,0,0,0],"id":26,"left_children":[1,3,5,7,-1,9,11,-1,-1,-1,13,15,17,-1,19,21,23,25,27,-1,-1,-1,-1,-1,-1,-1,-1,-1,-1],"loss_changes":[5.2607927E0,2.6631932E0,4.8971686E0,3.4005558E0,0E0,1.5312291E1,8.538183E0,0E0,0E0,0E0,1.4271077E1,1.160702E1,4.5370593E0,0E0,1.6096567E1,1.0909281E1,7.9021244E0,1.7580233E1,1.5613668E1,0E0,0E0,0E0,0E0,0E0,0E0,0E0,0E0,0E0,0E0],"parents":[2147483647,0,0,1,1,2,2,3,3,5,5,6,6,10,10,11,11,12,12,14,14,15,15,16,16,17,17,18,18],"right_children":[2,4,6,8,-1,10,12,-1,-1,-1,14,16,18,-1,20,22,24,26,28,-1,-1,-1,-1,-1,-1,-1,-1,-1,-1],"split_conditions":[-2.5630267E0,-9.0081406E-1,-2.0621507E0,-1.0444578E0,-3.4477228E-1,-9.380424E-1,-1.3609245E0,-2.9420295E-1,1.9457923E-1,-3.6438343E-1,-1.0960351E0,1.7307693E0,5.356231E-1,-3.7266886E-1,5.727219E-1,-3.1728184E-1,-1.318536E0,5.0988907E-1,3.4205374E-1,2.9609072E-1,-1.2659216E-1,-1.5270922E-1,4.0343072E-2,1.2549254E-1,-2.6919773E-1,7.1428525E-3,2.910866E-1,-4.655187E-2,3.0588238E-2],"split_indices":[2,4,2,4,0,8,2,0,0,0,7,10,4,0,7,7,7,8,2,0,0,0,0,0,0,0,0,0,0],"split_type":[0,0,0,0,0,0,0,0,0,0,0,0,0,0,0,0,0,0,0,0,0,0,0,0,0,0,0,0,0],"sum_hessian":[3.216101E3,8.313068E0,3.2077878E3,3.2969296E0,5.016139E0,5.1172897E1,3.156615E3,1.171081E0,2.1258488E0,4.978684E0,4.6194214E1,1.5335556E2,3.0032595E3,3.444836E0,4.274938E1,1.1699335E2,3.636221E1,2.0285471E3,9.747124E2,3.270388E1,1.0045497E1,3.8415627E1,7.857772E1,4.706117E0,3.1656092E1,2.0097277E3,1.8819338E1,5.757013E2,3.9901114E2],"tree_param":{"num_deleted":"0","num_feature":"18","num_nodes":"29","size_leaf_vector":"1"}},{"base_weights":[-2.554616E-3,-6.9768196E-1,-8.317201E-4,-9.325825E-1,8.17877E-2,-1.452536E-2,7.4906744E-2,-2.093134E-2,-3.4897664E-1,-2.9867939E-3,-5.974991E-1,-4.704215E-2,2.8564963E-1,-9.19456E-3,3.463217E-1,3.3267483E-1,-7.3264533E-1,2.0767508E-1,-2.2448973E-1,3.935737E-1,-9.308571E-1,6.696391E-3,-2.8910607E-2,-1.6208214E-1,3.617096E-1,-2.2395102E-2,-3.5250586E-1,1.428996E-1,-6.3937925E-2,-2.6145527E-1,-1.1689914E-2,-1.4221238E-1,1.669817E-1,-3.7900427E-1,1.6734008E-2],"categories":[],"categories_nodes":[],"categories_segments":[],"categories_sizes":[],"default_left":[0,0,0,0,0,0,0,0,0,0,0,0,0,0,0,0,0,0,0,0,0,0,0,0,0,0,0,0,0,0,0,0,0,0,0],"id":27,"left_children":[1,3,5,7,-1,9,11,-1,-1,13,15,17,19,21,23,-1,25,27,29,31,33,-1,-1,-1,-1,-1,-1,-1,-1,-1,-1,-1,-1,-1,-1],"loss_changes":[3.836936E0,2.0596502E0,3.3171542E0,1.2330909E0,0E0,1.8218115E1,1.2599449E1,0E0,0E0,5.7647715E0,1.293469E1,1.4106997E1,2.3953098E1,7.177221E0,3.6020557E1,0E0,1.4265253E1,1.4600151E1,2.2032654E1,2.3704296E1,4.970379E0,0E0,0E0,0E0,0E0,0E0,0E0,0E0,0E0,0E0,0E0,0E0,0E0,0E0,0E0],"parents":[2147483647,0,0,1,1,2,2,3,3,5,5,6,6,9,9,10,10,11,11,12,12,13,13,14,14,16,16,17,17,18,18,19,19,20,20],"right_children":[2,4,6,8,-1,10,12,-1,-1,14,16,18,20,22,24,-1,26,28,30,32,34,-1,-1,-1,-1,-1,-1,-1,-1,-1,-1,-1,-1,-1,-1],"split_conditions":[-2.5630267E0,1.1790377E0,1.0416962E0,-1.2276287E0,8.17877E-2,8.9124864E-1,1.4206896E0,-2.093134E-2,-3.4897664E-1,8.0481446E-1,-2.0621507E0,-3.1297354E-3,1.1842884E0,6.425793E-1,-2.0169584E-2,3.3267483E-1,-1.3657907E-1,4.1528173E-2,-7.6228374E-1,-7.07581E-1,1.7337013E0,6.696391E-3,-2.8910607E-2,-1.6208214E-1,3.617096E-1,-2.2395102E-2,-3.5250586E-1,1.428996E-1,-6.3937925E-2,-2.6145527E-1,-1.1689914E-2,-1.4221238E-1,1.669817E-1,-3.7900427E-1,1.6734008E-2],"split_indices":[2,0,0,8,0,0,17,0,0,0,2,1,3,2,3,0,6,2,7,1,11,0,0,0,0,0,0,0,0,0,0,0,0,0,0],"split_type":[0,0,0,0,0,0,0,0,0,0,0,0,0,0,0,0,0,0,0,0,0,0,0,0,0,0,0,0,0,0,0,0,0,0,0],"sum_hessian":[3.2032532E3,6.9210176E0,3.1963323E3,5.6033816E0,1.317636E0,2.7076016E3,4.8873065E2,1.4568045E0,4.1465774E0,2.6560369E3,5.1564754E1,3.1007742E2,1.7865323E2,2.6106157E3,4.542111E1,3.2553961E0,4.830936E1,1.2724836E2,1.8282907E2,1.6471664E2,1.3936591E1,1.9179629E3,6.9265283E2,2.2539276E1,2.2881834E1,1.989136E1,2.8418001E1,7.758375E1,4.9664608E1,3.9917152E1,1.4291193E2,2.5753786E1,1.3896286E2,1.021406E1,3.7225313E0],"tree_param":{"num_deleted":"0","num_feature":"18","num_nodes":"35","size_leaf_vector":"1"}},{"base_weights":[-2.6426113E-3,9.01829E-2,-1.4690316E-2,2.4531719E-1,-3.6643196E-2,-1.6446641E-1,-2.3479327E-3,4.1293597E-1,-2.063971E-1,-7.909309E-1,5.989968E-2,-3.5849515E-1,3.6470994E-1,4.2745593E-1,-9.952572E-3,5.546806E-1,-1.7751302E-1,9.047685E-2,-5.47478E-1,-8.809207E-2,-5.6652415E-1,2.1902333E-1,-4.703355E-1,-5.8667403E-1,-2.594494E-1,7.832658E-1,-2.2502954E-1,-5.207953E-1,8.552362E-1,2.2220064E-3,-2.324699E-1,-1.0711893E-2,2.1217816E-1,-5.1094985E-1,8.097093E-2,-4.5369127E-1,1.0884518E-1,1.3162851E-1,-6.2400794E-1,1.4010018E-1,-1.8384105E-2,-4.8042667E-1,-2.306898E-2,-1.5274501E-1,1.21689424E-1,2.663528E-1,-1.9338061E-1,-2.304666E-1,1.6349229E-1,2.0023008E-1,-4.3378112E-1,3.3042645E-1,-2.4958457E-1,9.272662E-3,-2.3958895E-2,-8.939782E-3,-3.1721532E-1],"categories":[],"categories_nodes":[],"categories_segments":[],"categories_sizes":[],"default_left":[0,0,0,0,0,0,0,0,0,0,0,0,0,0,0,0,0,0,0,0,0,0,0,0,0,0,0,0,0,0,0,0,0,0,0,0,0,0,0,0,0,0,0,0,0,0,0,0,0,0,0,0,0,0,0,0,0],"id":28,"left_children":[1,3,5,7,9,11,13,15,17,19,21,23,25,27,29,31,33,35,-1,37,-1,39,41,-1,43,45,47,49,51,53,55,-1,-1,-1,-1,-1,-1,-1,-1,-1,-1,-1,-1,-1,-1,-1,-1,-1,-1,-1,-1,-1,-1,-1,-1,-1,-1],"loss_changes":[3.5756547E0,7.2357683E0,5.230789E0,1.2604437E1,1.482726E1,2.2249546E1,8.552661E0,1.0219324E1,2.1987617E1,1.76521E1,1.5362817E1,2.4506737E1,1.4564983E1,1.8899336E1,6.9652123E0,8.831629E0,1.6956789E1,1.7716255E1,0E0,1.6791906E1,0E0,9.745665E0,1.8596642E1,0E0,2.5125717E1,5.696644E0,1.0864515E1,1.7195255E1,1.4095139E1,5.7446036E0,2.2266743E1,0E0,0E0,0E0,0E0,0E0,0E0,0E0,0E0,0E0,0E0,0E0,0E0,0E0,0E0,0E0,0E0,0E0,0E0,0E0,0E0,0E0,0E0,0E0,0E0,0E0,0E0],"parents":[2147483647,0,0,1,1,2,2,3,3,4,4,5,5,6,6,7,7,8,8,9,9,10,10,11,11,12,12,13,13,14,14,15,15,16,16,17,17,19,19,21,21,22,22,24,24,25,25,26,26,27,27,28,28,29,29,30,30],"right_children":[2,4,6,8,10,12,14,16,18,20,22,24,26,28,30,32,34,36,-1,38,-1,40,42,-1,44,46,48,50,52,54,56,-1,-1,-1,-1,-1,-1,-1,-1,-1,-1,-1,-1,-1,-1,-1,-1,-1,-1,-1,-1,-1,-1,-1,-1,-1,-1],"split_conditions":[-1.5420816E0,-3.1297354E-3,-1.4673865E0,5.356231E-1,-1.2276287E0,5.109237E-1,-1.4580497E0,1.3308999E-1,2.015133E0,-9.478091E-2,1.7307693E0,-1.1605741E0,-4.285323E-1,-3.1728184E-1,1.5739762E0,-1.6261135E0,5.806776E-1,-5.59523E-1,-5.47478E-1,8.3915636E-2,-5.6652415E-1,-2.9460406E-1,-5.59523E-1,-5.8667403E-1,1.0890616E0,1.9863515E0,1.7090881E0,-6.1352664E-1,1.9928877E0,6.425793E-1,1.9863515E0,-1.0711893E-2,2.1217816E-1,-5.1094985E-1,8.097093E-2,-4.5369127E-1,1.0884518E-1,1.3162851E-1,-6.2400794E-1,1.4010018E-1,-1.8384105E-2,-4.8042667E-1,-2.306898E-2,-1.5274501E-1,1.21689424E-1,2.663528E-1,-1.9338061E-1,-2.304666E-1,1.6349229E-1,2.0023008E-1,-4.3378112E-1,3.3042645E-1,-2.4958457E-1,9.272662E-3,-2.3958895E-2,-8.939782E-3,-3.1721532E-1],"split_indices":[3,1,3,4,8,0,3,0,13,7,10,2,7,7,7,3,0,2,0,0,0,0,2,0,8,14,0,4,12,2,14,0,0,0,0,0,0,0,0,0,0,0,0,0,0,0,0,0,0,0,0,0,0,0,0,0,0],"split_type":[0,0,0,0,0,0,0,0,0,0,0,0,0,0,0,0,0,0,0,0,0,0,0,0,0,0,0,0,0,0,0,0,0,0,0,0,0,0,0,0,0,0,0,0,0,0,0,0,0,0,0,0,0,0,0,0,0],"sum_hessian":[3.1951191E3,3.6630627E2,2.828813E3,1.6434473E2,2.0196153E2,2.1442448E2,2.6143884E3,1.1992843E2,4.4416306E1,2.2100239E1,1.798613E2,1.5713254E2,5.729195E1,4.4493027E1,2.5698953E3,9.676045E1,2.3167973E1,3.8329865E1,6.086441E0,1.4130924E1,7.9693155E0,1.3879564E2,4.106566E1,8.081203E0,1.4905133E2,3.3317417E1,2.3974531E1,1.3764381E1,3.0728647E1,2.4375215E3,1.3237396E2,2.0028585E1,7.673187E1,4.617159E0,1.8550814E1,4.905712E0,3.342415E1,1.17918005E1,2.339124E0,7.3290985E1,6.5504654E1,9.805572E0,3.1260086E1,1.0853642E2,4.0514904E1,3.1396172E1,1.9212465E0,1.4059028E1,9.915504E0,6.1473894E0,7.616992E0,2.7118797E1,3.6098511E0,1.8067323E3,6.3078906E2,1.0709761E2,2.527635E1],"tree_param":{"num_deleted":"0","num_feature":"18","num_nodes":"57","size_leaf_vector":"1"}},{"base_weights":[-2.3716104E-3,-5.7831346E-3,3.2401806E-1,-1.4276964E-2,1.1449649E-1,4.873497E-1,-1.5143512E-1,-8.257782E-3,-3.5164663E-1,7.685038E-1,-7.990736E-2,6.57581E-1,1.9688053E-1,-6.844302E-1,5.140795E-1,-5.1156036E-3,-1.0071079E0,-2.940942E-1,1.1062031E0,-3.6887726E-1,5.947824E-1,1.834875E-1,7.907434E-1,6.4192384E-1,-1.6608094E-1,-9.272307E-3,-1.0073113E0,5.1742163E-2,2.0143859E-1,-5.358152E-2,2.00229E-3,-3.3596575E-1,-8.447042E-2,4.9520326E-1,1.3453717E-2,-2.3602656E-1,5.77668E-2,-8.806957E-2,3.9972684E-1,1.5435392E-1,-7.055178E-2,2.8139627E-1,1.1667173E-1,2.3103376E-1,4.13555E-2,-3.3882788E-1,6.5870516E-2,-6.294054E-2,-3.9835662E-1],"categories":[],"categories_nodes":[],"categories_segments":[],"categories_sizes":[],"default_left":[0,0,0,0,0,0,0,0,0,0,0,0,0,0,0,0,0,0,0,0,0,0,0,0,0,0,0,0,0,0,0,0,0,0,0,0,0,0,0,0,0,0,0,0,0,0,0,0,0],"id":29,"left_children":[1,3,5,7,9,11,13,15,-1,17,19,21,23,25,27,29,31,-1,33,35,37,39,41,43,45,-1,47,-1,-1,-1,-1,-1,-1,-1,-1,-1,-1,-1,-1,-1,-1,-1,-1,-1,-1,-1,-1,-1,-1],"loss_changes":[3.543943E0,3.218904E0,2.6304903E0,2.0496712E1,2.6484777E1,1.0939493E0,3.60852E0,9.184891E0,0E0,2.9263847E1,3.163044E1,8.127594E-1,1.8139627E0,1.1351271E0,1.3440335E-1,5.9736786E0,4.3560123E-1,0E0,2.330849E1,2.6760174E1,3.229989E1,7.625515E-1,3.1819534E-1,2.1391582E-1,2.7059705E0,0E0,6.590078E-1,0E0,0E0,0E0,0E0,0E0,0E0,0E0,0E0,0E0,0E0,0E0,0E0,0E0,0E0,0E0,0E0,0E0,0E0,0E0,0E0,0E0,0E0],"parents":[2147483647,0,0,1,1,2,2,3,3,4,4,5,5,6,6,7,7,9,9,10,10,11,11,12,12,13,13,14,14,15,15,16,16,18,18,19,19,20,20,21,21,22,22,23,23,24,24,26,26],"right_children":[2,4,6,8,10,12,14,16,-1,18,20,22,24,26,28,30,32,-1,34,36,38,40,42,44,46,-1,48,-1,-1,-1,-1,-1,-1,-1,-1,-1,-1,-1,-1,-1,-1,-1,-1,-1,-1,-1,-1,-1,-1],"split_conditions":[3.8596532E0,1.4270474E0,1.7307693E0,1.3990368E0,1.4830687E0,3.9197934E-1,7.550962E-2,2.646083E0,-3.5164663E-1,-4.5696607E-1,1.7307693E0,-1.2276287E0,-8.138047E-1,-6.1352664E-1,1.2772003E-1,-7.08795E-1,2.5548428E-1,-2.940942E-1,2.9602966E-1,1.4179806E0,1.6324588E0,-6.830883E-1,-3.895178E-2,2.4187855E-1,1.1101979E0,-9.272307E-3,-7.07581E-1,5.1742163E-2,2.0143859E-1,-5.358152E-2,2.00229E-3,-3.3596575E-1,-8.447042E-2,4.9520326E-1,1.3453717E-2,-2.3602656E-1,5.77668E-2,-8.806957E-2,3.9972684E-1,1.5435392E-1,-7.055178E-2,2.8139627E-1,1.1667173E-1,2.3103376E-1,4.13555E-2,-3.3882788E-1,6.5870516E-2,-6.294054E-2,-3.9835662E-1],"split_indices":[0,3,10,3,3,4,8,2,0,0,10,8,3,4,7,0,0,0,0,16,3,3,4,2,4,0,1,0,0,0,0,0,0,0,0,0,0,0,0,0,0,0,0,0,0,0,0,0,0],"split_type":[0,0,0,0,0,0,0,0,0,0,0,0,0,0,0,0,0,0,0,0,0,0,0,0,0,0,0,0,0,0,0,0,0,0,0,0,0,0,0,0,0,0,0,0,0,0,0,0,0],"sum_hessian":[3.1800618E3,3.1481387E3,3.1923023E1,2.9413123E3,2.068264E2,2.3741964E1,8.181058E0,2.927103E3,1.42092905E1,4.6715263E1,1.6011115E2,1.4172327E1,9.569638E0,4.5270376E0,3.6540208E0,2.9189258E3,8.177222E0,7.2528024E0,3.946246E1,1.1241641E2,4.769473E1,3.6292312E0,1.0543096E1,3.953501E0,5.6161375E0,1.859358E0,2.6676795E0,1.8135399E0,1.8404808E0,1.8484001E2,2.734086E3,6.606748E0,1.5704737E0,2.5715305E1,1.3747156E1,6.421758E1,4.8198833E1,2.1910143E1,2.5784586E1,1.8988777E0,1.7303535E0,6.7393665E0,3.8037293E0,2.7311664E0,1.2223346E0,1.0541795E0,4.561958E0,1.2391663E0,1.4285133E0],"tree_param":{"num_deleted":"0","num_feature":"18","num_nodes":"49","size_leaf_vector":"1"}},{"base_weights":[-3.0925698E-3,5.8898453E-2,-2.3367886E-2,-9.09121E-3,7.7516305E-1,-1.2570442E-1,8.844495E-3,3.7263986E-1,-8.4408894E-2,-1.2323692E-2,1.33623E0,8.4924114E-1,-1.6113299E-1,5.2864738E-2,-1.6993426E-1,2.3276794E-1,1.9188905E0,-2.5108722E-1,1.7004E-1,1.4382435E0,-6.591456E-1,-3.454416E-1,1.7432481E0,-6.395386E-1,1.5021448E0,3.1348005E-1,-2.5124422E-1,-5.268455E-2,1.6396841E-1,-3.3685084E-2,-9.670119E-1,1.8905337E-1,-8.023904E-2,8.90214E-1,-2.786993E-1,-3.847561E-2,-2.3210718E-1,-1.4705598E-2,2.6090434E-1,-2.913529E-1,5.955658E-1,7.459258E-2,-3.5809195E-1,7.489634E-1,4.9937606E-2,-4.120055E-1,1.9509071E-1,5.719752E-1,-2.1599223E-1,1.5358153E-1,-3.4590107E-1,-2.7854156E-1,-5.0286986E-2,6.3757014E-1,-2.1268146E-2,3.156401E-2,1.8109846E-1,1.05350606E-1,-6.8267204E-2,1.105948E-1,-3.6207488E-1],"categories":[],"categories_nodes":[],"categories_segments":[],"categories_sizes":[],"default_left":[0,0,0,0,0,0,0,0,0,0,0,0,0,0,0,0,0,0,0,0,0,0,0,0,0,0,0,0,0,0,0,0,0,0,0,0,0,0,0,0,0,0,0,0,0,0,0,0,0,0,0,0,0,0,0,0,0,0,0,0,0],"id":30,"left_children":[1,3,5,7,9,11,13,15,17,19,21,23,25,27,29,31,33,35,37,39,41,-1,43,45,47,49,51,53,55,57,59,-1,-1,-1,-1,-1,-1,-1,-1,-1,-1,-1,-1,-1,-1,-1,-1,-1,-1,-1,-1,-1,-1,-1,-1,-1,-1,-1,-1,-1,-1],"loss_changes":[3.9872386E0,3.8082535E1,7.880929E0,2.0590403E1,2.9969952E1,1.990603E1,1.4324418E1,2.5078674E1,2.5406452E1,2.8341875E1,4.2101036E1,2.0623388E1,2.3734268E1,1.7134382E1,3.9024223E1,2.1910782E1,3.157856E1,2.3122854E1,3.641135E1,1.4208515E1,1.0427045E1,0E0,4.047689E1,7.3938165E0,1.4278503E1,2.640612E1,2.6200695E1,2.9881166E1,1.8323023E1,2.3073298E1,1.7256088E1,0E0,0E0,0E0,0E0,0E0,0E0,0E0,0E0,0E0,0E0,0E0,0E0,0E0,0E0,0E0,0E0,0E0,0E0,0E0,0E0,0E0,0E0,0E0,0E0,0E0,0E0,0E0,0E0,0E0,0E0],"parents":[2147483647,0,0,1,1,2,2,3,3,4,4,5,5,6,6,7,7,8,8,9,9,10,10,11,11,12,12,13,13,14,14,15,15,16,16,17,17,18,18,19,19,20,20,22,22,23,23,24,24,25,25,26,26,27,27,28,28,29,29,30,30],"right_children":[2,4,6,8,10,12,14,16,18,20,22,24,26,28,30,32,34,36,38,40,42,-1,44,46,48,50,52,54,56,58,60,-1,-1,-1,-1,-1,-1,-1,-1,-1,-1,-1,-1,-1,-1,-1,-1,-1,-1,-1,-1,-1,-1,-1,-1,-1,-1,-1,-1,-1,-1],"split_conditions":[-5.3444636E-1,-5.5062115E-1,-2.9460406E-1,-1.2072856E0,1.6469564E-2,-1.8618004E0,2.015133E0,-5.617775E-1,1.4179806E0,-6.596982E-1,-5.59523E-1,-9.071735E-1,-1.5327448E0,1.2772003E-1,1.4057728E0,9.2478573E-1,-5.5769765E-1,-5.983874E-1,1.4057728E0,